the -0.12179973 -0.44762516 0.28350177 0.59775084 -0.16851217 0.43697187 0.15710011 -0.82654357 -0.08058235 0.29702476 -0.587728 0.029445717 -0.41287085 -0.5284862 -0.06796569 -0.01893987 0.036790714 0.25574043 -0.3215067 0.07450748 0.29660735 0.26038092 0.36376718 0.17851156 0.54872924 0.14437544 0.23915148 0.46540672 0.21788296 0.020857459 -0.37959158 0.10067976 0.14145198 0.38884413 -0.22929755 -0.5027785 0.32095698 0.06645451 -0.43133593 0.19713232 -0.13519818 0.3316203 0.40204954 0.114781775 -0.6349472 -0.0736592 0.10791556 0.07191777 -0.22883448 0.23778223 -0.27010322 0.13654216 0.12125275 -0.58722466 -0.100616165 -0.5254605 -0.29511854 -0.18755402 -0.6851606 -0.23839973 -0.048068225 0.16322333 -0.113595225 -0.38954395 0.2795983 -0.5417492 0.15650962 0.29266822 0.16613217 -0.41482773 0.17726426 0.16286172 -0.051183373 0.19816087 -0.12477842 0.5267225 0.387051 0.21939602 -0.1645005 -0.2372338 0.011006505 0.23001318 0.21898995 -0.40082142 -0.7262614 -0.14318317 0.15942504 0.21497303 -0.4776861 -0.37574688 0.3949842 0.3681311 -0.19949144 -0.19927454 -0.08645106 0.087991714 -0.2292919 0.24697247 0.28639075 -0.031705026 -0.26990145 -0.038575046 0.6804322 0.16711134 0.57686985 -0.014187057 -0.1948249 0.0038655535 0.53212917 -0.75047094 0.42922896 0.36793303 -0.5633842 0.09650588 0.13958614 0.06494645 -0.20619039 0.25803366 0.11563294 0.5154721 -0.45290953 -0.46844143 -0.022900756 -0.2834747 0.44001463 -0.80352986 -0.10379281 0.39569277 -0.68828386 -0.16884373 -0.859085 -0.41351414 -0.73026395 0.40605447 0.065997206 -0.49774492 0.30474296 0.09104177 0.8960518 0.5771807 -0.1191315 0.4401538 -0.06714545 -0.00914266 0.20588747 -0.016324596 0.022896428 0.18071717 0.2560915 0.25566202 0.5066324 0.24361333 0.62011623 0.2874671 -0.23726504 0.3470477 0.23948677 0.3641158 0.14947844 -0.72179943 -0.17803235 0.03191506 0.08200722 -0.24264638 -0.28127435 -0.58159924 0.166248 0.29610562 0.12684101 -0.20738024 0.2243804 0.06857449 -0.03887517 0.090179585 -0.13807708 0.24243712 0.13990873 -0.27768958 0.0072423914 -0.13724995 0.018512141 0.41294053 0.39230534 -0.30093253 0.23251289 -0.14793064 -0.6236663 -0.4338574 0.12304143 0.16654979 -0.4170534 -0.3388235 0.237524 -0.39904642 -0.08977598 0.40575725 0.22874746 0.32909596 -0.24786437 -0.43227756 0.18017903 0.20944676 -0.3347794 0.1932619 -0.51905197 0.39049444 -0.3928305 -0.31778222 -0.36049262 0.0015921948 0.14285997 0.51487535 -0.42585182 0.24403587 0.1738157 -0.07522852 0.25295198 0.8551309 0.48379904 -0.39409396 -0.17123413 -0.3121734 0.39293995 0.0342848 0.2571747 -0.10994707 0.54427487 0.033920392 0.29777732 -0.15720826 -0.22976542 -0.022254683 0.43891865 -0.18325368 -0.10470767 -0.35019088 -0.18523584 0.01379225 -0.21947591 0.5370894 -0.17846486 0.252272 0.28592017 0.30217707 -0.12223421 0.19341764 -0.24615374 -0.4393373 -0.36461335 -0.1295429 0.16032553 -0.044504497 0.03590119 0.1450456 -0.49105588 0.034327537 -0.31954396 0.73139673 0.320423 0.49690387 -0.07428341 -0.37454745 0.00021401688 0.45899296 -0.052686043 0.06298193 0.27443594 0.022025507 -0.65744114 -0.52829593 -0.4760412 0.082918614 0.07962878 0.17386958 -0.55360097 -0.23679239 -0.0802833 -0.079110235 0.11419666 0.23586038 -0.041185994 0.20032616 0.04898922 -0.98564017 0.33670232 0.32727262 0.33085307 -0.5074744 0.3861502 -0.13079964 -0.07258968 -0.19991645 -0.087258585 -0.44254476 -0.061104797 0.011388848 0.4863913 0.00613084 0.93871534 0.39771616
is -0.2887169 -0.059743933 0.090476036 0.60416055 -0.11952989 0.059532095 0.15080266 -0.4777771 0.0672428 -0.28589812 -0.18483898 0.60169804 0.2469212 -0.08436463 0.50312954 0.085655816 -0.13626055 0.04170701 -0.26173908 0.2170755 0.10315658 0.18581615 0.55181235 0.3459407 0.063323215 -0.0035432924 -0.041262183 0.30477417 0.4859125 -0.25705573 -0.0031337847 -0.11998605 -0.5427682 0.11942176 0.29295185 0.22767954 0.5183373 -0.40967777 -0.28675088 0.108113125 0.24066046 0.18362254 -0.122460954 -0.49764463 0.08699352 0.05802677 -0.18616396 -0.22992033 -0.25345242 -0.2939947 0.2495801 -0.03249353 -0.28187013 -0.76762116 0.06314005 -0.31764805 -0.18783762 0.30848008 -0.39213428 0.008929554 0.026621278 0.09975899 0.5409377 -0.4090107 -0.1509242 -0.29171726 0.18765609 -0.023048898 0.28004596 -0.23177543 -0.053494845 -0.21909007 -0.32829043 0.6882774 -0.39908743 -0.17766309 -0.084952004 0.19763073 -0.015752107 0.043904547 0.024206817 0.18554758 0.32267365 -0.4470342 -0.306652 -0.3940977 0.3008489 0.2545119 0.11151315 -0.3259431 0.091149636 0.32240668 0.17259441 -0.05339974 0.24158382 -0.24712777 -0.07244934 -0.059596274 0.12756078 -0.06543431 -0.15214165 0.22596957 0.157961 0.2406656 0.09683477 0.11418459 -0.19530502 -0.22144468 0.088118985 0.30275452 0.22043084 0.57681733 0.052138638 0.16283937 0.04792634 -0.24661241 -0.07524134 0.28177536 0.23359992 0.30180317 -0.26911896 -0.077635765 0.20154247 0.6210187 -0.33114302 -0.55927557 0.050042097 0.5937784 -0.7256197 -0.68193996 -0.14916815 -0.3092142 -0.55936193 0.49536023 0.042781558 -0.5415539 0.30042621 0.20613109 0.58839417 0.3540401 0.0684356 0.076340646 -0.21166387 -0.18737085 0.04181627 -0.26104084 0.04519593 0.13948423 0.19314526 -0.14054562 0.038234223 1.1005135 0.42492062 -0.12014416 -0.43490922 -0.09827429 -0.05756448 0.056017622 0.38571113 -1.0023263 0.13171682 -0.40279025 0.049310386 -0.35273844 0.18724905 -0.3020229 0.37244156 -0.019490307 -0.051744487 -0.04522417 -0.05915784 0.2673355 -0.41607073 0.12471326 -0.2023639 0.35855898 -0.20004298 0.25940728 0.39272952 -0.23022497 -0.12920621 -0.7606707 0.2761423 0.42306 -0.53159904 -0.38779268 -0.11607535 -0.2392837 -0.08046692 0.24504144 -0.63910186 -0.53646445 -0.067803554 -0.36000696 0.15237428 -0.13007471 0.0207628 0.023362674 0.21540569 0.18637785 -0.116320595 -0.005707673 -0.029665263 -0.32567894 -0.27408275 -0.0103061 -0.26879963 0.09587114 -0.64974016 0.08446164 -0.051175214 0.03016097 -0.08399171 -0.22585697 0.05410911 -0.16529202 -0.31842834 -0.27868697 -0.11463875 0.60811126 0.035293836 -0.20142813 0.030187022 0.2109771 -0.055302165 -0.11619038 -0.08070935 -0.6706823 -0.34534514 0.035739742 -0.07822013 0.16304335 -0.4865422 -0.46056485 0.75474083 0.05077805 -0.24209525 -0.346922 0.2649281 0.28608787 0.21882881 -0.38769406 -0.64181864 -0.037516583 -0.14940739 0.16622137 -0.16553883 0.5400889 -0.17386213 0.09523169 0.15736067 -0.15217696 -0.29962635 0.5967124 0.5310529 0.43252942 -0.622402 -0.11913909 0.5395199 -0.035638805 -0.19372924 -0.2960346 -0.6650746 0.35814506 1.1010244 0.037020788 -0.031760354 -0.3684104 1.0031424 -0.11056796 0.099119365 -0.4489284 0.17947786 0.13258263 -0.36848614 0.00036284293 -0.41796252 -0.34043902 0.40347916 0.17537467 0.21752942 -0.18069905 -0.37782657 -0.31037453 -0.1775877 -1.0234358 0.03348777 -0.02732968 0.043271136 0.61367375 0.107685074 -0.2407955 -0.4712994 -0.49841878 0.017671134 -0.4196062 0.08978971 -0.3014266 -0.3489235 -0.3353097
a -0.16382444 -0.06289045 -0.22516756 0.38040385 -0.20034151 0.18077378 0.37124914 0.58415836 -0.63411003 -0.019894656 -0.34483764 0.37095305 0.31517425 0.29024065 0.13081482 0.2830487 0.078838244 -0.19535804 -0.05481647 -0.16392544 -0.23716006 0.6016325 0.79985344 0.5475041 -0.18870638 -0.09138294 0.27628976 0.033120606 0.5552176 0.24067126 -0.22019862 0.46214357 -0.43929914 0.52081794 0.14765109 -0.037469268 -0.5013391 -0.0132624535 -0.5709253 -0.047328487 0.40114018 0.2922898 -0.0077866646 -0.09653852 -0.25930715 0.2104274 -0.36572418 -0.643506 -0.39144757 -0.77516806 -0.12974134 -0.24801645 -0.19684577 -0.30034107 0.12049778 -0.61815506 -0.15055023 -0.4428141 -0.21040435 0.3881786 0.13868551 0.28297114 0.557745 0.02036846 -0.12638801 0.3351034 0.22401647 0.37325066 -0.30054167 -0.23888779 0.26889178 0.63008803 -0.054777116 0.44182494 0.30025423 0.03957064 -0.0035556513 0.13521484 -0.028258901 -0.15661259 -0.17271693 0.03884035 -0.01970293 0.037104603 -0.07290692 -0.6735792 0.6207721 0.17591271 0.28045067 -0.12148574 0.38264886 0.034388352 0.36307168 -0.042177502 -0.014427674 0.14267057 0.1863142 -0.2241587 0.07557446 0.7467671 0.27437997 0.074539654 0.17845733 0.39103773 -0.44121724 -0.072507314 0.22283958 0.024041653 -0.666683 -0.035116393 0.23468801 0.19555148 -0.0028484527 0.0862502 -0.036073346 -0.043527592 0.16185719 -0.05844707 -0.17975287 -0.18462089 0.23766808 0.22359626 0.017950328 -0.3226446 -0.4438315 0.23544563 -0.08891677 -0.18100038 -0.66026723 0.3939173 -0.039415643 -0.12890081 -0.0767731 -0.3387889 0.25906923 -0.3838354 0.12053559 0.16873047 0.062426925 -0.23323998 0.8541775 -0.029029714 -0.22350655 0.22074017 -0.0543578 -0.18986052 -0.4201722 0.2180157 0.47784948 -0.47700125 -0.3527066 0.3342338 0.6528282 -0.15041855 -0.052801203 0.13248338 -0.018318042 0.46800095 0.33580637 -0.3635316 0.5029668 -0.15016545 0.25022188 -0.25473034 0.2109968 0.5617796 -0.01807155 -0.07066831 0.054135114 -0.40155318 0.12710932 0.03972286 0.26300344 -0.19639394 -0.5769431 -0.15061344 0.4970111 0.3023129 0.25056472 -1.0274667 -0.3454345 -0.11446957 0.0009092213 -0.08195001 -0.5768477 -0.3713158 -0.49251547 -0.31903017 0.12752329 0.321174 -0.43441665 -0.58544075 0.2411391 -0.119790606 -0.27908522 -0.28667885 0.028857013 -0.25722635 0.29525122 -0.09260523 0.03691376 0.51694536 -0.2089323 0.19302303 0.19035825 0.021400683 0.36954698 -0.13710707 -0.36165354 0.061861485 0.13622546 -0.1207368 -0.020182285 -0.35914293 0.4841358 0.12221138 0.19024822 0.49920332 -0.15593523 -0.108617 -0.048732355 0.43402708 0.24225515 0.28308254 -0.33476374 -0.5027574 -0.3115594 -0.21397889 -0.0812348 -0.2351439 0.54510456 -0.585018 0.023812225 -0.3176838 0.1369103 0.72652715 0.12658137 0.22377923 -0.10104642 0.006465813 -0.06751417 -0.27641585 0.03537798 0.4663556 0.0035848022 0.15052557 -0.3905833 0.2637439 -0.19611138 -0.3083988 0.3763172 0.34555686 0.052855097 -0.10622125 -0.29646602 -0.30970117 0.081246 -0.22225639 0.25380924 0.06839531 -0.35153273 -0.23226759 -0.14393438 0.33384013 0.11673425 0.6520861 0.046709184 0.27830088 -0.6181573 -0.21780506 -0.5128835 -0.1472551 0.25511998 0.73195183 -0.4071144 -0.03190927 -0.13072468 -0.33539823 -0.38203228 0.41942063 -0.36985746 0.18202268 0.4509662 0.03197387 -0.058588438 0.1542093 0.0066915136 -0.29133755 -0.43887222 0.21380548 0.4645487 0.41055092 -0.087944016 -0.77690077 0.8142577 0.18176657 0.05263819 -0.13077663 0.49850178 -0.10149088
with 0.021322396 -0.0702737 -0.2030631 0.046934895 -0.43869358 -0.37240377 0.18434179 0.5353031 -0.07634808 -0.28996593 0.19049929 -0.23095235 -0.37377635 -0.040168162 -0.2616253 0.3868634 -0.043231133 0.24815686 0.027775701 -0.78686756 0.2120924 0.4565824 -0.294033 -0.1834973 0.11072254 0.21835205 -0.47975472 0.27806392 0.35375303 -0.31334797 -0.27929917 0.75729066 0.36371598 0.35767877 -0.41712916 -0.18005319 -0.12753631 0.9571148 -0.096052 -0.32767192 0.4941534 0.1516116 0.19277485 -0.18862897 -0.68811595 -0.45984918 -0.22288926 -0.14411406 -0.5018609 0.06546362 -0.46907273 0.124555565 -0.11990807 -0.88843375 0.5625663 -1.2646549 0.02401934 0.23163208 -0.67902267 0.46601263 -0.37638372 0.51830316 0.71798116 -0.16490354 -0.20303284 -1.1773026 -0.9394492 -0.42301998 0.5285531 -0.022946004 -0.19521211 -0.42592677 -0.18222679 0.4106266 -0.26264802 -0.5686816 0.8033441 0.27263802 0.9362579 0.12437049 0.12755725 -0.10773031 0.17928463 -0.21549991 -1.0710069 -0.789844 -0.59645957 0.70168406 -0.011001507 0.23085117 0.312013 0.7280042 0.47552904 0.046458796 0.58392227 -0.29989517 0.047588084 0.61618006 0.22014628 0.54131144 0.51336056 0.14638826 0.73035055 0.124219425 -0.66401637 0.7425847 0.4054504 -0.029863873 0.11510834 -0.7178668 0.20166259 0.053527873 -0.11471669 -0.5734658 -0.18226278 0.29961753 0.2942424 0.4630602 -0.1762575 0.36556563 0.23408511 -0.49908525 0.62489504 0.08289405 -0.2096041 -0.35251075 -1.0592501 0.8014829 -0.94067895 0.038570605 -0.9281179 -0.6360017 -0.29712108 1.3433093 0.528169 -0.8840497 0.45842835 0.1559245 1.1606573 0.99164814 -0.5931009 0.18673615 0.211882 0.86026025 -0.18695965 -0.25324085 0.061025765 -0.12957287 -0.034183722 0.49611074 -0.04147888 0.422487 0.24491175 -0.48147815 -0.23157652 -0.23875353 -0.28270572 0.0025477821 0.6493698 -0.526891 -0.46486378 -0.6176368 0.60614574 -0.18559523 -0.48865223 -0.07358231 -0.23851426 -0.11894185 0.18899156 -0.098594904 0.32465926 0.08287055 -0.8024004 0.3677486 -0.9185142 0.6020803 0.5118237 -0.5603553 -0.28256947 0.47486058 -0.10753607 0.30036867 0.17912744 0.6906416 -0.587719 0.035063263 -0.36780214 -0.07795272 0.42747167 0.14570504 0.23422801 -0.36247227 -0.08996177 -0.13393947 -0.36671877 -0.3342454 0.4640593 0.15453278 0.2821028 -0.883035 0.55564964 0.1323088 -0.45458886 0.40759295 0.61696994 -0.10924558 0.100600004 0.26282704 0.015800087 -0.0014607696 0.5238279 0.3049712 -0.41393256 0.23444074 0.9300333 0.0900967 0.35072336 -0.20000896 -0.21217808 -0.9930859 -0.22228466 -0.67090523 0.6154295 -0.24678865 -0.55025446 -0.31967255 0.014564074 0.20337245 0.45561165 0.49763167 0.3860793 -0.4126 0.47381717 0.117127605 0.030101614 0.00063291506 -0.18192087 0.33437103 -0.023088343 -0.23924607 -0.38088748 -0.38907072 0.009140931 0.20113622 -0.2776962 0.18347086 0.0498356 0.062739536 -0.00058708753 0.6972392 -0.18543044 0.021614939 0.18461537 0.2872351 0.008981084 0.84685993 -0.5122039 0.85592294 0.6112357 0.58158475 0.19265105 -0.232885 -0.6030069 0.5700347 -0.3034905 0.28939974 0.30761716 0.20787789 -0.31446525 0.07442359 -0.5215316 0.20693143 0.6299374 0.16686891 -0.117409036 -0.23573181 -0.23139624 0.27880347 0.063175574 0.22709994 0.21601243 0.6840156 -0.14133964 -0.14405487 0.5365191 0.28362402 -0.4155676 -0.35019615 0.9498462 0.10936561 0.49687278 -0.26536405 -0.30564782 -0.18044421 0.020853117 -0.44302797 -0.3957425 -0.27051562 0.2616065 0.19502272
fabric -0.24372509 -0.4062799 0.7930297 -0.3486876 0.20766997 0.81713456 0.07628679 -0.32706854 0.75730526 -0.037418578 -0.57533145 0.2923376 -0.12674002 -0.7145022 -0.40214127 -0.5384043 -0.23846838 0.39703813 0.085858755 -0.5403041 0.00471387 0.3664398 0.5398682 0.66388464 0.53005254 0.564232 -0.41524705 0.1305569 0.16593033 0.7762562 -0.6600985 0.42706865 -0.16210592 0.019529909 -0.16649947 -0.79234266 -0.36684832 -0.1340408 -0.31629306 -0.3880837 -0.11161521 0.5164343 0.43845508 -0.30709663 -0.49467593 -0.5325175 0.61107796 -0.25220186 -0.30076742 -0.11768304 0.068445735 0.012549246 0.14492114 -0.71819395 0.26256078 -1.0861369 0.13765717 -0.13938837 0.22538806 -0.15501682 -0.32881212 -0.2276534 0.30028096 0.009458147 -0.038667638 -0.118751906 0.67499954 -0.011965524 -0.74777657 -0.28425282 0.4473613 0.12172785 -0.23715012 0.48923963 -0.29727247 0.018556891 0.13002221 -0.31599364 -0.44221312 -0.08562663 -0.38419047 0.78546935 -0.31664208 0.07941799 -0.28074738 0.22397962 0.77022696 -0.4666533 -0.68484473 -0.39976415 0.1908478 -0.22711052 0.01904534 -0.43039954 -0.09907314 -0.2662866 -0.030351635 0.12546553 0.623463 0.3124246 -0.5158723 0.4205225 -0.3989673 -0.18528238 -0.10947561 0.37859422 -0.23708263 -0.5788531 0.3385404 0.33663785 0.3324261 0.8003606 -0.73714674 -0.50408614 0.6320445 0.10745024 0.10569044 0.14633211 -0.27746305 0.572827 0.295173 -0.13953264 0.25663143 0.56348675 0.54479086 -0.6572673 -0.075573266 0.4966764 -0.43052587 -0.20276043 -0.2825358 -0.53702646 -0.2193772 0.26154745 0.67174226 -0.91340995 -0.060155448 0.4183844 0.82207495 0.7831448 -0.2510711 -0.004095647 0.27259108 0.27349806 -0.08183826 -0.1620441 -0.022080962 0.11296054 0.65377885 -0.17012453 0.4222819 0.29245895 -0.37692115 -0.24341135 -0.044636562 -0.23764475 0.15064986 -0.3672571 -0.29231378 0.12411641 -0.042297963 0.33131367 0.3873478 0.058861535 0.1835728 0.033084743 0.9635809 0.29585454 0.2768733 -0.19449699 -0.44590485 -0.4204181 -0.7977686 -0.033530004 0.15441307 0.5938304 -0.18921037 -0.2027464 0.24012165 -0.6135804 -0.01922535 0.8138909 0.11157498 -0.4534167 0.15875329 0.19712175 -0.019988498 -0.030190855 0.0941249 -0.23048888 -0.17321225 -0.35123953 0.7631203 -0.14684418 -0.70061755 0.3148748 0.90795034 0.4823394 -0.4491791 -0.049130928 0.111542895 0.7549676 -0.35542005 0.067213774 -0.11559722 0.25520697 0.06953618 -0.10922985 0.7733389 -0.2842102 0.67866117 0.4048652 -0.43584985 0.05591016 -0.74207526 0.6690836 0.48279434 1.1516985 0.34384555 0.5144897 -0.15283062 0.16037811 0.72321403 0.41804188 0.14102398 0.62189585 -0.32100913 -0.03164301 0.6152815 0.031565018 -0.3455353 -0.01962015 0.534361 -0.5677708 -0.3869631 -0.6061048 0.2821413 0.25977227 0.5722512 0.5025347 0.15414123 0.5569747 0.5455107 0.14157587 0.030744724 0.57807434 0.038296938 -0.090236716 -0.1257294 0.13405077 0.07707411 0.1098095 -0.16496009 -0.027128352 0.00034782884 -0.15044242 0.020932877 -0.07561643 0.9480112 0.4989842 -0.0036460087 -0.42442432 -0.4054662 0.8643415 0.3903566 0.33764026 -0.7844862 -0.36906612 0.5061679 -0.6139784 -0.67207015 -0.21696486 0.36323953 0.17581274 -0.067562774 -0.7219705 0.17605488 -0.4634064 0.33828762 0.2764313 -0.034862243 0.21544926 0.20537731 -1.1939204 0.2993555 -0.035208832 0.49507296 -0.11217381 -0.19740757 -0.58016074 0.058463175 0.07197817 0.27862015 0.122267894 0.38708463 -0.21381709 0.18489115 0.3714158 0.49250886 0.8541271
and -0.39939606 0.69232607 0.30539602 0.76165503 -0.71224916 0.39465177 0.09264259 -0.3495523 0.051545516 0.501263 -0.18436794 -0.1922186 0.31085056 -0.5671517 -0.37498203 -0.10436037 -0.66062033 0.2967634 -0.1917546 -0.08316985 0.8216091 0.64235973 -0.027003597 0.23314536 0.29279605 -0.007909004 -0.1514761 0.7527335 0.0023592792 -0.6196616 -1.0614548 0.060933925 0.28118697 0.45924842 -0.2295961 0.28897262 0.38197762 -0.1495248 -0.66593903 0.07736292 0.11799681 -0.26744324 -0.002218805 -0.14488375 0.12639788 0.36008096 -0.24196984 -0.09263833 0.07471226 -0.32066151 -0.41359028 0.72912323 0.33187732 0.4045144 -0.10885383 -0.519141 0.16707516 -0.2689495 -0.13466248 0.025886122 0.2820608 0.016537722 -0.16135325 -0.2937515 0.06299428 -0.27755958 -0.040304683 0.52957195 0.2903423 -0.237036 -0.2980194 -0.058359295 -0.36506015 0.35255006 -0.14594422 0.379902 0.049193837 0.14096314 0.1761669 -0.23718078 -0.12394019 0.5247735 0.24531327 -0.7469563 -0.6064534 0.5229521 -0.20877726 -0.25624707 -0.046173327 0.16634373 -0.2710184 0.1473873 -0.09289534 -0.4754997 -0.20104289 0.0797479 -0.4133507 0.49082148 0.5667283 0.18792301 -0.061855692 -0.4222966 0.8986403 -0.06816512 0.5000591 0.2887121 -0.13552445 0.02436105 0.45811623 -0.25533697 0.41819784 -0.059231773 -0.38219017 0.3147035 -0.003173112 0.29694474 -0.53296536 0.427858 0.18995471 0.18217283 0.340707 -0.110163316 -0.032174554 0.32876143 0.3578037 -0.18860352 0.575432 0.21342564 -0.3685688 -0.40284956 -0.56970316 -0.4778997 -0.5456597 0.6000567 0.06872473 -0.06139278 0.9896601 -0.17912823 0.42148685 0.40991056 0.19121486 0.38014662 -0.25599265 -0.30010408 0.17527996 -0.022188459 -0.22730924 0.08713251 -0.02114762 -0.22073105 0.2704538 0.030647084 0.06393104 0.04673349 -0.28960976 0.2583337 -0.08448538 -0.12727363 -0.2295533 -1.165748 -0.0288018 0.11893984 0.4699705 -0.4829282 -0.29946494 -0.2877211 -0.061785147 0.052188274 0.4085027 -0.14832418 0.2251545 0.41946372 -0.4564139 0.19862963 -0.2778269 0.087359495 0.15370962 -0.32389352 0.23833771 -0.28559762 0.38311383 -0.065853 0.17034556 -0.50978786 -0.4705496 0.14526136 -0.6094394 -0.73840183 0.15151517 0.3908748 -0.523496 -0.23144972 0.68282217 -0.17812543 -0.44883725 0.5693024 0.2847011 0.17174326 -0.43058416 -0.50806457 0.04010284 0.17531401 -0.3875535 -0.20727849 -0.27935195 -0.021885196 -0.042596806 -0.24304493 0.11064672 0.15940532 0.14593315 0.59555876 -0.12321414 0.34790567 0.29984608 -0.43963727 0.16876787 0.7995372 0.35663617 -0.6609538 0.12719947 -0.71470636 0.6284027 -0.08127179 0.27269396 -0.03897438 -0.087748446 -0.10364004 0.06566804 0.08731498 -0.24892184 0.47672883 -0.02082076 -0.426057 0.4845415 -0.13604362 -0.8222961 0.052811764 0.46791273 0.45129913 0.030618593 -0.039526455 0.14739986 -0.17428175 -0.08294393 -0.09943671 0.20176251 -0.15382604 0.13811763 0.2813678 0.14135735 0.094277956 -0.012736382 0.46383318 0.70050126 0.29743868 -0.42725018 0.24574737 0.38577983 0.26487756 0.014774889 -0.6307881 -0.7572541 0.524596 0.5837656 0.07657901 -0.252241 -0.103424646 0.40727463 -0.4822184 -0.099623695 0.026188979 0.37236974 0.5232915 -0.2507989 -0.12015529 0.15387182 0.08769676 0.6458347 0.18267915 -0.2225997 0.45213038 0.30431825 -0.8062616 0.46137723 -0.08298615 0.45463592 -0.32930687 0.6511908 -0.34014896 0.047744926 -0.6779348 0.081840545 -0.72770214 -0.38822538 0.053319715 0.03951851 0.17576542 0.32156798 0.029651625
patterns -0.21983604 -0.7741756 -0.25608423 0.146247 0.48432866 -0.41326806 0.16749789 0.10746084 -0.65074325 -0.39552483 -0.105326176 -0.13865896 0.1446905 0.5018627 0.14991213 -0.22344948 0.24491723 -0.04663836 -0.25954303 -0.9626233 0.08673184 -0.023276169 0.44000152 0.31725207 0.4386523 -0.086199686 -0.88237107 0.4593379 0.47886595 -0.42962003 0.14422807 0.03604664 0.015690953 0.18193898 0.050361507 -0.22589709 0.35507706 0.35544276 -0.1601461 -0.327726 0.04196457 0.08263039 0.31220052 0.053243637 -0.5868759 0.39113575 -0.17914954 0.5018449 0.3529504 0.1561216 0.22782435 -0.8112889 -0.4038134 -0.14981444 -0.03632823 0.2294982 -0.29645726 -0.24100052 -0.24102372 -0.1704929 0.12086748 0.6970908 0.39284366 -0.30765277 -0.44258112 -0.25864163 0.2061286 0.029100688 0.17338908 -0.2821184 -0.09971702 -0.44795418 0.30334347 0.20148374 -0.14162938 0.49096575 -0.41164353 0.5748462 -0.6511709 -0.0970482 -0.107257016 0.23461182 -0.11889529 -0.3060082 0.015746895 0.1375352 -0.15033668 0.33422193 -0.9533725 -0.4903148 0.088257566 0.35274386 0.01389669 0.5477794 -0.5436782 -0.6037389 -0.93601537 -0.019803291 0.6624841 -0.26736158 0.23789546 -0.22060022 0.18493894 -0.31067148 -0.20051819 0.2532747 0.46368882 -0.4627015 0.10773794 0.17987557 0.7003006 0.30901283 0.509776 -0.041691132 0.31534758 0.286069 -0.3237568 -0.42086583 0.09854533 0.47696725 -0.13969529 0.4183998 -0.05640838 -0.03333242 -0.42722246 -0.08174446 0.2508208 -0.37791365 0.0016451679 0.49193385 -0.26606694 -0.2787924 -0.111473404 0.0011232876 -0.51271677 0.36258492 -0.17952886 -0.40605664 0.079589434 0.06984206 0.060062867 0.117146015 -0.08037233 -0.12484245 0.32477218 0.18143988 0.035995867 0.0036745863 -0.026229864 -0.1881965 -0.10796358 -0.0013740674 0.10214452 -0.38201386 0.17575657 0.42572883 -0.3197714 0.12391014 0.32748136 0.041685324 -0.30443424 0.05799318 -0.7313229 0.0023769462 0.25928658 0.43298003 -0.14921081 -0.026599644 -0.48911604 0.13835748 -0.39491725 -0.015322186 -0.17462786 -0.21628697 -0.44345284 0.5814321 0.28152445 0.13548312 0.1549834 -0.101832815 0.28981456 -0.19929713 -0.100740366 0.115084715 0.1128513 -0.55684304 -0.19779661 -0.3546204 0.41298604 -0.15489514 -0.23223326 0.04807356 -0.9505924 0.13121004 -0.35198694 0.019922625 0.6461732 0.06824458 0.40468583 -0.49095094 0.030179624 0.08980016 -0.0043075914 0.20098227 -0.3124066 0.4720945 -0.6673708 -0.26599362 0.3775509 0.4222992 0.28627262 0.65280175 0.15301117 0.9325519 0.35703605 -0.3498988 -0.3484004 1.087008 -0.25282753 0.16741781 -0.25192076 -0.6035982 -0.028168635 0.66225743 0.19934325 0.021412566 -0.10579986 0.29759303 0.26534086 -0.010919039 -0.1546371 0.02015698 0.792337 -0.096760765 0.16427025 -0.40059304 -0.59713596 0.23276629 -0.580023 1.3031645 -0.4238106 0.88526404 -0.33058265 0.8652335 -0.93326753 0.25227174 -0.74548227 -0.14699858 -0.47537503 0.1273041 -0.25406042 -0.6587398 -0.16682146 0.5322881 -0.26965225 0.59194565 -0.90075344 -0.120701306 0.65198845 0.51120603 -0.24104181 0.39364326 -0.38798475 -0.009286598 0.60928607 -0.19394517 0.021444542 -0.47449425 -0.025874015 -0.81545866 0.2826982 0.44454873 -0.51917565 -0.47379464 0.18545334 -0.12254332 -0.56118244 -0.40746912 0.33276814 -0.38400406 -0.6887504 0.032739058 -0.2041182 -1.365674 -0.5622365 0.7147207 0.20762967 -0.5536843 0.25141287 -0.15665828 -0.6711848 -0.5214751 -0.21989529 -0.25365588 -0.3434225 -0.3473946 0.17658855 -0.22351228 0.10144184 0.4014434
wears -0.010994929 0.7993312 0.5221385 -0.27032587 -0.4402994 0.38109514 0.68475395 1.1033256 -0.21084698 -0.0830334 0.63531125 -0.56923383 0.2276993 -0.17848821 -0.011992726 -0.6607578 0.86825067 -0.39062557 -0.085389346 -0.34988663 -0.27365002 -0.27557084 0.21428058 -0.15159678 -0.041712206 0.2983912 -1.2141938 0.16018885 -0.39807153 -0.32837778 0.17838857 -0.070024855 0.14842163 -0.83191913 0.22324467 -0.2828871 -0.45607972 -1.3491646 -0.24826418 -0.04118205 -0.1085238 0.18496719 0.17182267 0.50306404 -0.29511347 -0.720909 -0.4333639 0.12529095 -0.5295136 0.15531078 -0.08083669 0.20825987 -0.1830667 0.24314494 -0.47889185 -0.4736529 -0.16015019 -0.02374716 -0.33845344 -0.2352642 0.09165181 0.33017266 -0.35172617 -0.3434809 0.45754322 -1.0189059 -0.048729975 0.2097648 0.11002845 0.20364547 -0.030371709 -0.025726462 -0.7147615 0.19378436 -0.65121657 -0.2559309 0.43925583 0.124415405 0.79927653 0.010517005 -0.06531693 0.3732774 0.46797827 -0.91547245 -0.24293616 -0.2299648 0.07950365 0.41290903 -1.009416 0.037793968 -0.3387098 -0.29627377 -0.34744793 -0.5134096 -0.7940205 -0.18104646 -0.4495571 0.74196887 0.122902624 0.41385102 -0.06690603 0.13147359 -0.1126015 0.09706518 0.19601926 0.51693535 0.1041962 -0.10784117 -0.09223903 -0.3681571 0.08216232 -0.37898976 -0.49873927 -0.19047692 -0.17054874 0.2758501 0.14652379 0.2505491 0.43397102 0.8801855 0.3583663 -0.60293907 -0.792871 0.439392 0.2746989 0.028222444 -0.27901095 0.8863109 -0.4013221 -0.39527336 -0.10888823 -0.36745656 -0.727116 0.3515944 0.5742037 -0.19231245 0.68661 0.36290878 0.029494008 0.7415131 -0.14469153 0.34066933 -0.03504596 -0.01216071 -0.1694341 0.16152377 0.07403695 0.7882986 -0.130002 0.15554692 0.5801821 -0.07229129 -0.40479907 0.7950699 -0.18777388 -0.13755639 0.14674093 -0.45872545 0.06771759 -0.3384121 -0.9104696 -0.114699885 0.3556743 -0.073963694 0.28624704 0.08428379 0.5916972 0.1728993 0.2933377 0.19047786 -0.30561435 0.29641634 0.15829942 0.08137218 -0.84211886 0.096299246 -0.6291379 -0.1998366 -0.036293563 0.38506874 -0.8906783 0.833226 0.51721096 -0.7699906 -0.20029911 0.21719243 -0.13312492 0.17544816 0.16778196 0.19472076 0.06058964 -0.2042879 -0.408871 0.026143316 -0.29201588 -0.3613219 0.56952375 -0.06833649 0.26881227 0.43881732 0.490901 -0.22247578 0.649062 -0.6384344 -0.30176768 -0.07846742 0.055501144 0.046680436 -0.15579736 -0.18850335 0.00028974682 -0.16903569 -0.05951572 0.394952 -0.0038022704 0.42080194 0.8619383 0.41375795 0.6517209 -0.46596828 0.4598568 0.20051378 0.24759819 -0.27467957 -0.17087504 0.34244603 0.056359332 0.7931915 0.50212204 0.095826834 0.30372685 -0.11762352 -0.5108473 -0.59653074 0.2763406 -0.21838835 0.7936586 0.18621966 -0.2604348 0.84786487 0.069609694 0.65132606 0.5607567 -0.20999628 0.2400505 0.1571899 -0.11008452 -0.36625078 -0.0865585 0.24095261 0.42450666 0.040894344 -0.015471425 0.2576532 -0.8108318 0.54295856 -0.14347512 0.64970565 0.2308668 -0.120308585 0.25309423 0.247597 -0.22232789 1.0512719 0.2745631 0.24681711 0.06131534 -0.5080796 0.34784386 -0.6148353 -0.3568331 0.27147463 0.084453456 -0.26686597 0.70718676 0.023178017 -0.20354117 -0.038120348 0.29624224 0.60441744 -0.5692658 -0.14083213 0.26968923 -0.2692883 0.44995233 0.46555427 -0.24023236 0.03918965 0.1296673 0.13999732 0.2768297 -0.03720756 -0.16626783 -0.34601524 0.13112399 -0.12633012 0.24841844 0.06293402 0.4465488 0.796736
color -0.9357566 -0.94171965 0.18276246 -0.50473386 -0.5563164 0.2527355 0.004299855 -0.8724318 -0.2030833 -0.33998704 -0.5690347 0.76642406 0.3907605 -1.1472666 0.054823592 0.7508443 -0.022255009 0.5236154 -1.4972249 0.038240217 -0.8099702 0.228571 0.17623639 0.34097946 0.20449166 0.0392718 -0.20888563 -0.84859043 0.17250742 -0.48344317 0.25363645 1.0342168 -0.024925789 -0.063332215 0.38519502 0.0028034423 0.41884694 -1.1450638 -0.02825811 0.72394884 0.18458506 0.39782146 0.2795662 -0.7102201 0.81252366 -0.7692027 0.9156843 0.12512247 0.22571015 -0.32074898 0.47076464 0.09201572 -0.25439647 0.3984845 -0.4236263 0.49139684 -0.10336526 0.27234888 0.407371 0.5101145 0.6295624 -0.30027503 -0.13421363 0.26465097 -0.3978524 0.20241863 -0.15755782 -0.42074093 -0.32280922 0.536643 0.5143309 0.7396329 0.44011247 -0.48504248 0.07676942 0.30485895 0.5132839 0.13227646 -0.46113488 1.0418239 0.79696375 -0.19134262 0.25841913 0.18359688 0.020189095 0.7319763 0.2762038 -0.080394894 -0.27743363 0.6037092 0.052808873 -0.2038179 0.51025087 -0.120455384 -0.02659103 -0.69368684 0.15135811 -0.3632845 0.5681924 -0.430691 -0.1765747 0.27813172 0.4658038 -1.0734302 0.049540978 0.51029706 -0.61823356 0.08831937 0.21015152 0.22589043 0.32646602 0.59465784 -0.020107904 -0.61007535 -0.6410308 -0.07032296 0.4852141 0.27509966 -0.042027295 0.52749 -0.56652725 -0.16324599 -0.1522764 -0.6300775 -0.08940949 0.117585145 -0.09577718 0.52559453 -0.40493798 -0.10229073 0.13163342 -0.58839905 -0.90343595 0.4113538 -0.10360849 -0.32564583 0.5690817 0.4369265 1.1884332 0.17127019 0.23290624 -0.2136694 0.7317632 -0.3787825 -0.31933513 -0.46858582 0.6711641 0.44584683 -0.38087144 -0.401201 -0.02928137 0.4340751 -0.32468432 0.1939664 0.37510425 -0.3793563 0.40461618 0.5433396 -0.31320646 -0.57658005 -0.047470424 -0.05773901 -0.12718554 0.6450013 0.5789539 -0.08446379 1.0575745 -0.69765586 -0.23058377 -0.23037976 -0.589061 -0.66531175 -0.50692743 0.02387491 -0.26468182 0.32806984 -0.18769711 0.13650244 0.35868552 0.34872666 0.20805345 0.6433403 0.3875756 0.31239444 -0.1200589 -0.24805504 -0.5603002 0.49376592 -0.36015338 0.870806 -0.7078405 -0.17081268 0.8782158 -0.5893813 0.011563871 0.15149732 -0.41179192 0.40712178 -0.47062933 0.38818014 0.022132346 0.45387974 -0.46914023 -0.027537933 0.6206148 0.40532446 0.85607946 0.021076644 -0.92328227 0.66295755 0.37286144 0.9285411 0.5553363 0.016531445 -0.20752218 0.46928287 0.59480226 0.43194085 0.082479805 -0.69578636 0.76766723 -0.72689456 0.8439474 -0.517123 -0.2566645 -0.36855328 -0.2257927 0.37143418 0.3310221 0.8635753 0.41250557 0.09860427 0.34697142 0.2227709 0.20878364 -0.13197294 -0.48226064 -0.11161512 -0.759565 0.7785989 0.16956052 0.49384272 -0.122882366 0.09334086 -0.48158014 0.28941143 0.3730227 -0.49500024 0.10099943 -0.12777682 0.24004807 0.066106796 -0.0006665745 0.12778701 -0.45995593 0.4403365 -0.54659194 0.5562855 -0.40386838 -0.34215033 -0.23752369 -0.2994246 -0.16720538 -0.3399251 -0.3286125 -0.06660958 0.3923067 -0.3035757 -0.96532416 -0.21057563 -0.28165507 -0.049807258 0.16718425 -0.36062714 -0.3483235 -0.9999477 0.63962305 0.3705545 0.03249617 0.2218721 -0.6120646 0.12566255 0.17592223 0.67199475 -0.6017978 0.3170368 -1.1506348 0.30033946 0.059066944 -0.63452023 -0.20509689 -1.549176 -0.774756 -1.4417455 -1.6669061 -1.1386595 0.44473034 0.52137834 0.1634921 0.78465295
cotton 0.45866445 0.074662924 0.3865805 0.7033487 0.015495774 0.9833828 1.2510258 -1.4068742 -0.34254754 0.45127004 0.43814597 -0.13293993 0.40165257 -0.19913875 0.17308341 0.2445617 0.19706587 0.481704 -1.069712 0.44118336 -0.22131193 -0.15450226 0.65244657 0.14162375 -0.16833341 -0.3585543 -0.12835637 0.23746423 0.043465286 -0.38857713 -0.2278678 -0.25910953 -0.12617992 -0.18172458 -0.15638937 -0.0680514 0.21532784 1.0946423 -0.5624481 -0.017791923 -0.3885873 -0.1778414 0.1264176 -0.01432377 -0.6419523 -0.3014737 -0.49435973 -0.21294203 -0.06869056 0.30177978 -0.6897346 -0.71263283 -0.13575819 -0.9600761 -0.40395126 -0.18223605 0.11906972 -0.04503268 -0.44667223 -0.42003402 -0.19462208 -0.28062144 0.08700219 -0.1685323 0.37943926 -0.5289836 -0.1860915 0.2462968 0.3466536 -0.6751984 0.07906941 0.121071234 0.08219831 0.7049436 -0.39668113 -0.5220674 0.104602955 -0.44567618 0.9624357 0.53366435 0.09901605 -0.4720859 0.45761707 -1.347125 -0.030780917 -0.7828401 0.20477073 -0.16412377 -0.115918204 -0.41567498 -0.0008151715 0.17784801 0.3455478 -0.8552064 0.08642364 0.61762655 0.450989 -0.17990765 -0.60725456 0.2064725 0.13589938 0.04361568 -0.00015313538 1.0456506 0.07588185 0.70945734 0.08587351 0.6672091 0.7578068 0.061730936 -0.033370554 -0.37250853 0.16508396 0.83885825 -0.8518258 0.11588463 0.24515441 -0.09694321 0.23451819 0.60011095 0.5390086 -0.1657576 0.5840777 0.09658812 -0.17814969 -1.1111315 -0.22974584 0.9728227 -0.8107814 -0.43797612 -0.3579533 -0.31681845 -0.63133323 -0.3589674 -0.728998 -0.9446025 0.1305816 -0.1856194 0.6448258 0.8117817 -0.020744562 0.54282653 0.4672519 -0.6181491 0.9612587 0.29840702 -0.01727707 0.23321934 0.10842579 0.5438867 -0.17873403 0.8918006 0.018711887 -0.07588315 -0.18823513 -0.5969214 0.14832005 -0.30231977 0.060816336 -0.5385224 0.4011653 -0.3932323 0.009713013 -0.7742851 -0.43472353 -0.121851325 0.50133437 0.22792067 0.2806304 -0.20302136 0.26563224 -0.10829252 0.2979294 0.09245088 -0.8163055 -0.07102888 -0.007939909 -0.15617138 -0.9274289 -0.24461177 -0.23816736 -0.17612647 0.09537472 0.24902561 -0.12680946 -0.4924676 -0.46442035 -0.67455536 -0.27060717 -0.29865065 -0.012902958 -0.3375417 -0.14172466 0.017469056 0.2995798 -0.22938137 0.17822565 -0.3043631 0.14490025 0.12569444 -0.2708725 -0.88117886 -0.50166327 0.47454983 -0.31878102 0.37845325 0.081513 -0.26083484 -0.5517874 -0.025065368 0.36238837 0.61640376 -0.049903702 0.7908359 -0.20645992 -0.22200224 0.5121051 0.91024745 0.11636964 0.4975418 -0.5066136 0.09305525 0.367374 0.29912573 1.0465614 0.13111039 0.02254193 0.17023338 -0.03052332 0.30008695 0.53889656 -0.019194042 0.20451449 -0.3540472 0.71076936 0.09312903 -0.1880518 -0.4904999 0.22136794 0.25910875 0.13193385 0.25173387 1.0979046 0.3820947 0.024792822 -0.103811234 -0.33869645 0.24513885 0.24734099 -0.30953914 -0.13362236 -0.15301748 -0.59681183 0.16525026 -0.40647453 -0.14420532 -0.17856176 0.5493056 0.6470016 0.5219656 0.08316299 -0.3306773 0.27498913 1.1300157 -0.32388425 -0.013917756 -0.50434786 0.003733784 -0.4054666 0.6170879 -0.37722966 0.35053763 0.20938581 -0.16722414 -0.53088665 -0.42348853 0.73210406 -0.06707067 -0.3326215 0.70821124 -0.2863573 -0.43177563 -0.0104467645 0.3967935 -0.2094945 0.051088817 -0.77136284 0.61326784 0.520568 0.82771254 0.13717006 0.6392361 0.053130474 0.4994044 0.7513578 1.4844965 0.5604345 -0.64664406 1.38172 -0.47682822
this -0.04489185 -0.37476057 -0.11205483 0.66010547 -0.557751 0.0037550633 0.30239892 -0.3167149 0.23402965 0.39009044 -0.4077089 -0.022855734 -0.08165274 -0.59444815 -0.5449696 -0.19208165 -0.6400507 -0.31388423 0.22418793 0.33371288 0.19338904 -0.123401865 0.1785578 0.24555184 0.5862731 0.24336146 0.05076971 -0.1928623 -0.37103814 0.011085056 0.46428016 -0.3701136 0.91108286 0.015557761 0.18809426 -0.34462985 0.13800673 0.45662442 -0.18554182 0.022679875 -0.37948006 0.0422782 0.10450769 0.048484 -0.59484076 -0.3222789 0.40599874 -0.198194 -0.09201303 0.010110536 0.03707241 0.26647902 0.16827625 0.24350785 -0.6130832 0.19572158 -0.053223807 -0.64092124 -0.72454524 0.048306633 0.11485188 -0.25340924 0.24964395 0.11369325 0.061259564 0.16406374 0.19234648 -0.029322995 -0.13327429 -0.27975145 0.112466864 0.7009573 -0.06821515 0.19322753 0.3360682 -0.030975582 -0.08535682 0.040521204 0.0077135377 -0.29190463 -0.45277053 0.0835934 0.10027959 0.46938664 -1.1015209 -0.35933554 0.3303351 0.65396965 0.05433747 -0.23023647 0.35772574 0.22894973 0.08702703 0.2118856 0.30617365 -0.18131183 -0.674969 0.38069686 -0.37102073 -0.048835903 -0.80946213 -0.12219887 0.664121 -0.19581346 0.13024953 -0.1682412 -0.13939558 -0.2602257 0.35560995 -0.49583426 0.63426304 -0.32679012 0.21286732 0.21334462 0.15063341 0.28575912 0.104140654 -0.18692052 0.2601501 0.59136826 0.054720998 0.06564821 0.36298108 -0.5086751 0.42363942 -0.12841868 -0.59731764 0.3203431 -0.4418322 0.39699173 -0.36577716 -0.032860022 -0.33626685 0.26195744 0.33515066 0.15287016 0.37110978 -0.0063249064 0.4982948 0.10865896 0.17384513 -0.683031 0.24193731 0.1735135 0.11957945 0.003888957 -0.076131515 0.08302273 0.15385424 -0.56947017 0.5510167 0.1347169 0.3641842 0.31281838 -0.4324438 0.8311306 -0.0076956004 0.92309123 0.27789474 0.43503875 0.1941348 -0.109604955 0.18040441 0.16379316 0.46306932 -0.27810484 -0.103668414 -0.3253288 0.14723304 0.25530487 -0.17899866 -0.007353546 -0.19633533 0.26385057 0.3848966 0.3068274 -0.22905 0.10318698 0.44805777 0.2112695 0.30295232 -0.5774992 0.32483944 -0.11505792 0.13288084 -0.033180356 -0.25197342 -0.48297292 0.65695107 0.3329289 -0.030356588 0.15947613 -0.75673866 -0.6801283 -0.22087747 -0.20498578 -0.05497756 -0.5500069 0.22402936 -0.016914027 0.2074218 -0.09831108 -0.51377326 0.1832387 0.17771564 -0.11219917 -0.46655008 0.1471694 0.24441442 -0.40643683 0.24683699 -0.09330309 -0.5379001 -0.1867938 0.5791651 0.22254972 0.050744284 0.35788614 0.08066746 -0.45754385 -0.3092737 -0.45178568 0.0832121 -0.53313464 -0.055655744 0.07011512 0.08673807 0.24463008 0.31908754 -0.040291358 0.11203501 -0.15646839 0.6024153 -0.018886346 -0.14852282 -0.5458945 0.03412584 -0.29536617 -0.20344588 0.8145731 -0.06751094 -0.027767226 -0.13827683 -0.056741152 0.06686946 -0.35088047 -0.422328 -0.9560878 -0.40374738 0.28263053 0.32634276 0.081153326 0.18098144 0.28330424 -0.29137844 -0.20702925 -0.12448747 0.122596055 0.06720332 0.17008023 -0.5110856 0.19909443 -0.133077 0.005680399 0.09044725 0.3247271 0.34256503 -0.1943942 -0.6489757 -0.11605178 0.2798351 0.3055367 0.39861867 0.019043323 -0.13026224 -0.38146955 -0.15646264 0.13908508 -0.30058226 -0.16759138 0.075003736 -0.21801178 -0.62377226 -0.024266265 -0.045895822 0.1447167 -0.22251998 -0.6139307 -0.5915192 0.07433144 0.16671781 0.7986622 0.3689113 -0.27119252 0.77046233 0.41968566 0.42177632 0.24888209 0.5108018 -0.21260004
her -0.47920468 0.65785915 -0.81004024 -0.27446342 0.29774362 -1.6278082 -0.357706 1.8972842 -0.48427874 -0.5372475 0.6376979 -0.1665636 -0.07543619 1.2168674 -0.86183184 -0.1484311 -0.07909419 -0.79101723 -0.33725685 -0.7511702 -0.4399217 -0.69507015 0.16252002 0.13273022 0.28436518 -0.84460384 0.3404447 -0.23486304 0.12401912 0.62228507 0.638371 -0.30251035 0.2953315 0.036348112 0.42667422 0.5744666 -0.14823435 -0.6875391 0.0873576 -0.08970327 -0.22714402 -0.24091022 -0.23276165 -0.6329378 0.62108207 0.051611826 -0.6260274 -0.41273755 0.29698753 -0.13898687 0.2680491 0.5913082 0.49566254 1.0042218 0.5506209 0.4917082 0.19409555 -0.5704805 0.63413364 0.392364 0.17942066 -0.6012418 0.096403144 0.33231547 -0.92125314 1.448415 1.2886993 -0.2553748 -0.26286063 0.24735977 -0.66185474 0.15617935 -0.4385278 0.041036952 0.68966854 -0.45635065 -0.85034126 -0.58663476 -0.47954804 -0.47374943 0.28925037 0.05138366 0.28681073 0.8882345 0.43331254 0.7742387 0.08822502 -0.8065287 1.0221486 0.3643178 -0.038814772 -0.54803395 0.7345176 0.14639568 -0.091349356 -0.0050789635 -1.0529182 -0.5434279 0.074148804 0.23922315 0.047027044 -0.44534928 -0.5041016 -0.5057823 -0.015840132 -0.41598174 -0.0963441 0.45361552 -0.7789757 0.41198367 0.30633625 -0.57819927 1.2908616 0.803953 0.50593036 -0.4933683 0.026690314 0.56447434 0.051019438 0.106065646 0.44947746 0.34289178 -0.82910186 0.37467057 0.18655439 -0.113968305 1.2880005 -0.67181975 0.46440533 -0.65517014 0.42927325 0.33950907 0.58283687 0.42724398 -0.2025542 0.03897793 0.3769136 -0.71783334 -0.07296522 -0.2136084 0.49247164 -0.04151835 -0.056498047 -1.1155853 0.08039637 -0.070855424 0.3909621 -0.006212557 -0.8763876 -0.4539049 -0.25097457 -0.40879577 -0.8304333 -0.21630572 0.35121855 -0.2902441 0.3418845 0.06413609 0.31878626 0.51318425 0.53809965 -0.014063497 0.14546627 -0.07709955 0.8190508 0.2836482 -0.0362253 -0.76687855 0.38521233 0.096723735 0.37260792 -0.92515284 -0.47150218 -0.15896055 0.11684092 -0.435631 -0.1148158 0.30707586 0.5766025 -0.12602785 0.3944979 -0.78081584 -0.24438165 0.34794447 -0.0309245 0.0725452 0.54876035 -0.19868417 -0.046668198 0.75758916 0.46891364 0.92043304 0.35422784 0.56038684 0.44548663 0.6450975 0.11123739 -0.48806337 0.16651273 -0.07574794 -0.012102526 -0.43686333 0.038126606 0.15613557 -0.49530578 -0.08537007 -0.066815004 0.58132017 0.5476823 -0.3200066 -0.21886246 0.30295324 0.47319505 -0.059991054 -1.0594347 0.42886612 -0.19847615 -1.172916 0.03556067 1.1249789 -0.22621925 0.71073794 -0.5692686 -0.21437098 0.2353048 0.41445822 -0.96515924 -0.63425976 -0.85586953 -0.10160423 0.23816216 0.022003232 -0.56122994 0.32494694 -0.27778378 -0.27658996 0.60780346 -0.30498484 0.14748615 -0.03184736 0.2603197 -0.51419187 -0.52421355 -0.5089294 0.1819007 -0.19731602 0.24438733 0.40639028 -0.09139458 -0.120054945 -0.56606483 -0.0073983637 -0.68986017 -0.3878221 1.0581194 -0.32695696 0.07756708 -0.94779587 -0.82020324 -0.70692843 -0.54794216 1.0274941 0.098594286 -1.2662474 -0.0891379 0.20664488 0.56713945 0.59200966 0.43286532 0.7679449 0.53956133 0.26826552 0.058995076 0.12918946 0.33568794 -0.086351745 0.3923956 -0.08089125 -0.74076813 -0.7985983 -0.011763175 -0.6348768 -0.45891854 2.0372932 -0.78889984 -0.7190533 -0.8078909 0.39253637 -0.78275084 0.07026008 0.13121565 1.0713423 0.64336723 0.12110315 0.26682308 0.3824643 -0.28232485 0.58554035 -0.8401464 -0.52904123
has 0.38186333 0.65971243 0.16680911 0.03675661 -0.06147069 0.08210068 0.53343284 0.39680603 0.008524824 0.36167333 -0.30934718 -0.79316944 -0.21956253 -0.49367842 -0.09940426 -0.34870538 0.6151474 -0.03037124 0.20059086 0.4963857 -0.83345723 -0.24249278 -0.9454257 -0.04669067 -0.79011023 -0.18679081 -0.31225634 0.8119465 -0.7656652 -0.25357112 -1.022582 -0.05911938 0.8886131 -0.33480245 -0.27267113 0.75350785 1.1400723 -0.5873899 -0.90408283 0.85353065 -0.73033404 0.9114493 -0.007829543 -0.21279368 0.45822805 -0.40814084 0.43275306 -0.27745348 -0.17216188 0.4369563 0.5330688 -0.3681535 -0.35119942 -0.038921487 0.13523732 0.19392677 0.06394413 -0.0062188604 0.034465782 0.5478282 -0.14010026 -0.1659365 -0.26389655 -0.06743028 0.8840824 -0.06866231 0.25968862 0.49245316 0.104155235 0.22686104 -0.2829881 -0.25409895 0.47346294 -0.34814844 0.53222144 0.81123793 -0.30116835 0.09578721 0.12550683 -0.14997253 -0.5930447 -0.21759844 -0.26875573 0.08422253 -0.09626713 -0.4667017 0.042297076 0.7253739 -0.33172455 -0.49594313 -0.03902136 0.47039843 -0.017771091 -0.1169038 0.24796586 -0.12702426 0.48084593 0.36156526 0.43226692 0.13870585 0.015472278 -0.092735834 -0.20965312 -0.061844446 0.68584013 -0.6122724 0.308502 -0.25019097 0.05796611 -0.42425779 -0.5673433 -0.420288 -1.2792134 0.4260676 -0.2893831 0.038521487 -0.42539954 0.3259123 0.1779732 0.42851666 -0.6128096 0.27093512 -0.114988714 0.1217155 0.413508 -0.08499301 0.1254613 -0.19083788 -0.86817485 -0.28043595 0.13639292 -0.17727904 -0.11140534 -1.0877607 -0.42225072 -0.19903897 -0.69042724 -0.38185468 -0.08435197 -0.55093616 -0.34805438 -0.06449126 -0.050800484 -0.27876908 0.70280427 -0.18180759 0.26352525 -0.20905322 0.5353943 0.6386442 -0.01476852 -0.21458893 0.4886205 0.5704582 -0.7549443 0.06772058 -0.44940737 0.15731458 0.53544605 -0.5420029 0.19919042 0.44042075 0.49514723 0.03367091 0.22231208 0.13091731 0.31941152 -0.14257836 -0.06978847 -0.1767576 -0.04760906 -0.12896779 0.4971871 -0.2857806 0.6533849 -0.016216941 -0.13979292 1.1314448 -0.02583031 -0.3046644 -0.17403829 -0.084318265 0.11611964 -0.099219784 0.18761809 0.25388145 0.25413767 -0.24567278 -0.84321487 -0.59511817 -0.20890236 0.37169456 -0.25807747 -0.53013 0.31106275 -0.43995273 0.32128918 -0.09993108 -0.41417798 0.13374986 0.028078623 -1.0419853 0.25731122 -0.37195086 -0.5422719 0.22543412 -0.26518065 0.02451292 -0.1703885 0.07574419 -0.20140123 -0.08999519 -0.98330694 0.2078552 -0.5245664 -0.64141726 0.8064734 0.24430318 0.9962046 -0.14928903 0.94711477 -0.48018405 -0.13404287 0.40875784 -0.5009975 -0.7007601 0.7167797 -0.01896353 0.6485264 0.14547653 0.0044939243 0.10456705 0.20521773 -0.17129263 0.1944802 -0.2621548 0.39689186 0.0757784 -0.14487034 0.37683347 -0.25520313 0.033400696 0.2560464 0.2640095 0.11944584 0.56066126 -0.099648215 -0.5790186 0.22795746 -0.34699342 -0.03671491 0.34507525 -0.4145875 -0.21071722 -0.09793182 -0.16202897 0.37311906 -0.07429072 -0.38461953 0.13991302 -0.56877655 -0.10304492 -0.025054721 0.4823601 0.06808522 -0.43203712 0.4911744 -0.05908656 -0.004430133 0.37065098 0.29839978 -0.8543037 -0.4602508 0.36881432 -0.7077682 0.0056008114 -0.11880032 -0.19281411 0.4616559 0.24488723 0.13234378 -0.50673234 0.45115176 -0.5739313 0.56288844 0.29490355 0.6595034 0.1904379 -0.21287908 -0.07643565 0.63652384 -0.33770412 0.077627935 -0.60482365 0.11810582 -0.12029855 0.120244265 -1.2427889 0.4094068 -0.10471807
on -0.26799992 0.47119355 -1.2845868 -1.2230508 0.22876638 -0.9031496 -1.5441501 -0.72573483 -0.6741998 -0.15730111 0.60888153 -0.15983653 -0.16349374 1.1027176 0.41683352 0.043041263 -0.53533715 -0.5205024 0.26601312 0.28323546 -0.07522539 -0.81076586 0.9234064 0.22522412 -0.32567272 -0.021308858 -1.0344148 -1.248901 -0.30375966 -0.6734486 0.8534985 -0.43489134 0.45730108 -0.07911768 0.7217123 1.3337308 -0.49690968 -0.061298672 -0.027628897 -0.07758513 -0.04934576 -0.36905634 0.07149998 -0.21949321 0.24034049 0.35915118 0.19224899 -0.7554704 0.16269113 -0.7514028 0.07571356 0.07917412 0.6478 1.0758628 0.6934762 0.033032615 0.28181353 -0.3770112 0.3486541 -0.7063212 0.6979003 -0.29403847 0.23626332 0.56250834 -0.53023386 0.3973189 0.31288472 -0.5871346 0.24489664 0.7905349 -0.46283004 -0.4306188 -0.27770635 0.55150014 -0.05809739 -0.08741335 -0.51210475 0.03206295 -0.21926847 -0.6603068 0.01379156 0.59936225 -0.25277194 0.28971505 0.5416424 0.72752196 -0.20381676 0.24153338 -0.31531885 0.095389985 -1.1680378 -0.38693783 -0.45152545 -0.09130011 -0.32307175 -0.76059264 -0.9150365 0.015028202 -0.12995403 -0.35400465 0.1322396 -0.34748042 -0.710528 -0.6466106 -0.45130998 0.384757 0.5732977 -0.50147015 -0.23634845 1.1036586 0.16776192 0.35624114 0.95945305 -0.54444826 0.24506782 -1.2498212 0.03823831 -0.7215618 -0.15180957 0.5386534 0.7146812 0.2439818 -0.05183642 0.12514555 0.2470826 1.0827019 1.1438096 0.07135223 0.043046996 -0.07038166 1.3952122 -0.22522417 0.15057713 0.20693366 0.027681833 0.15656206 0.08511155 0.046269983 -0.33101755 -0.07566819 -0.11845594 -0.16062242 -0.5766232 -0.34827033 -0.41240963 -0.23188208 0.0064461203 -0.18405932 -0.8779339 -0.88381875 0.07265565 -0.80750275 -0.7654548 -0.5352677 0.7330017 0.39066562 -0.6014929 -0.07381449 -1.0202364 0.709083 -0.15155819 -0.2805108 -0.6373868 0.039814666 1.3094487 0.4224443 -0.50196046 -0.45795146 0.52030456 0.17844468 -0.3838035 -0.12386699 -0.09980044 -0.40626606 -0.27241397 -0.77088594 -0.62839216 0.49299964 1.0229901 -0.50526786 -0.26646355 -0.7497892 -1.0344763 0.4107577 0.1335154 -0.49051145 0.67266643 0.11053675 -0.6963182 0.10936226 0.5632915 0.22984272 0.64827704 0.030242639 -0.29048505 0.718043 0.21440692 -0.07134019 0.04554162 -0.42728513 -0.7872196 0.750208 -0.1523034 -0.5318411 0.59065145 -0.10448088 0.24686538 0.16254205 0.72752506 -0.004849601 -0.11588647 -0.5494862 1.5334593 0.09176153 -0.18428893 -0.07615658 -0.3995891 -0.49912262 -1.0126151 0.55970794 -0.50830096 0.18097828 -0.77530843 -0.22196119 0.7455754 0.10447603 -0.7184156 -0.736347 -0.6658734 -0.69546163 -0.022607943 0.58161086 -0.26963702 0.10258748 -0.15636629 0.7020295 0.1329746 0.2944032 0.65555125 -0.3016018 0.4300153 -0.8514037 -0.8989137 -1.296112 -0.5701721 -1.0315306 0.8333694 0.6098404 -0.18294215 0.27598503 -0.027181117 -0.26327762 0.04182194 0.16874108 1.0680152 -0.5395713 0.5880639 -1.6454583 -1.3166043 -0.3179843 0.7065517 0.5053676 0.043068778 -1.4476308 0.3110539 -0.38747302 -0.7212355 -0.39259893 0.7752383 0.9176117 1.201171 -0.0709613 0.14751318 0.30547798 0.4782039 -0.63938177 -0.23885278 -0.09998457 -0.06974083 -1.3442498 0.9174243 0.047624636 -0.99766666 0.9940365 -0.408274 -0.8254644 -0.82699853 0.27212366 -1.0644547 0.042919632 -0.20636642 0.47017837 0.39742023 -0.08844552 -0.8415775 -0.7719834 -0.8065837 0.070872605 -0.8303422 -0.99601734
there -0.07267223 -0.34669387 -1.3995045 -1.4592117 0.45459843 -0.7867039 -1.0118473 -0.4548617 0.004639108 0.07758412 0.38450503 0.087566465 -0.7290082 0.5047599 0.22427401 0.41570455 -0.7469268 -0.36120334 0.300523 -0.03137647 -0.1952117 -0.085897826 -0.22030662 -0.8802315 -0.37190732 0.15905824 0.30523795 -1.2519234 0.35764733 -0.12611088 0.69718605 -0.3794799 0.09190261 0.26379025 0.42236653 -0.14207579 -0.6515374 0.14752267 0.6402345 -0.80382353 0.38885814 -0.093134224 0.16615859 0.14127158 0.2745549 0.010600406 -0.67386997 0.118517086 0.5544107 -0.2535002 -0.033504147 0.60704434 1.3587607 0.9181349 0.37810245 0.40048435 0.30664206 0.23815483 0.04509385 0.14093527 0.79692036 -0.4931265 -0.038193624 0.20143014 0.2907205 0.42108312 -0.7082375 -1.2701732 0.1277615 0.64034635 -0.85237646 0.052955423 0.019933404 0.2982844 0.045876056 0.17991388 0.06761067 -0.53045744 -0.41760495 -0.98907757 0.22848025 0.40981057 -0.25336468 0.3131773 0.053907257 0.1536135 -0.04908307 -0.5991574 0.08817491 0.28774345 -0.9892879 -0.26781037 -0.024087867 0.28852978 0.2644142 -1.0330786 -0.8832376 -0.7855585 -0.5127498 -0.4450968 -0.04104898 -0.5949614 -0.446696 -1.3545948 0.0049397633 -0.030149696 -0.0354626 0.088260606 0.2574321 0.542334 0.38122573 -0.15026748 0.2639613 -0.25341108 -0.18206039 -0.07003546 0.38741907 -0.1202108 -0.4304485 0.3101212 -0.0092901755 -0.31123757 -0.4319898 -0.60596704 -0.31386387 0.27847007 0.649603 -0.6155958 0.40679216 -0.5105093 1.0967237 -0.05411182 0.99720854 0.5460347 -0.10757653 0.2610965 -0.36127648 -0.4273243 -0.5866955 -0.18673109 -0.21538478 0.49810168 0.1862211 -0.26965982 -0.6240454 0.08007558 -0.05793907 0.43215644 -1.2073648 -0.5793617 0.16704875 -0.23987718 -0.13876237 0.08536558 0.57067406 -0.17165838 0.19703737 -0.12733833 -0.012260193 -0.047851995 -0.41368788 -0.015220911 -0.019871052 -0.16039862 0.4531029 0.1365876 -0.03422373 -0.7444718 0.24982141 -0.3518246 0.8471329 -0.6886532 0.21664493 0.39819932 -0.17387089 -0.8398205 0.034437124 -0.11553473 0.14372113 -0.14368938 -0.21159136 0.029836731 -0.18990189 0.22499572 0.20359331 0.66047376 0.363236 0.1777026 -0.15643519 0.24534023 -0.03485611 0.59796554 -0.69507396 0.12462632 0.44269374 0.14528836 -0.34833327 -0.6069588 -0.012777304 -0.060404908 -0.01878549 0.08569363 0.04148176 0.13921447 0.10882662 -0.28918707 0.36256883 0.050661236 0.70907766 0.26321432 -0.07112876 -0.33680025 -0.0119040385 -0.67999506 -0.13333821 0.22978108 0.4072838 -0.25310254 -0.052190036 0.752677 -0.08603568 0.3824972 -0.9066025 -0.082363985 0.27114522 0.013103731 -0.07416299 0.08136042 -0.30019528 -0.33067244 0.07887328 0.20601542 -0.120377585 0.382544 -0.04927051 0.42195675 -0.14977814 -0.17000002 0.3550008 -0.4067674 0.21162665 -0.5724225 -1.1219152 -0.7763807 -0.07182326 -0.3535828 0.5101434 0.030269098 -0.12442878 -0.63765246 -0.6265395 0.1057024 -0.20555574 0.08308311 0.2537769 0.07347561 -0.8856014 -1.3965704 0.22248876 0.20653279 0.4309454 0.15963005 -0.36633864 0.095959775 0.19372454 0.44132665 -0.92779475 0.10620694 1.1251068 -0.20179582 1.333558 0.45632774 0.47191614 0.3857705 0.5005729 -0.30718702 -0.6732361 -0.15424143 0.09214214 0.1024909 0.8264328 -0.34793526 -0.13487603 0.98347026 -0.61290085 -0.5524714 -0.11750336 -0.5848177 -0.5786848 -0.22718544 -0.14804062 0.3750925 0.31214717 -0.009010851 -0.022797383 -0.56459606 -1.2183505 0.5101728 -0.8140748 -0.64258355
shirt 0.76808923 0.025194671 0.42842793 0.70516 0.25332856 0.17042777 0.17256734 0.7869775 0.25288165 0.14041843 -0.07768544 0.4931443 0.88680357 -1.1533328 0.82890457 0.10089338 -0.14328179 -0.13927048 0.8580081 1.4746531 0.43791947 0.80654854 -0.08660517 -0.18307859 0.025335614 -0.50179803 0.3863779 1.6368076 -0.64512 -0.18814221 -0.3383808 -0.126332 0.16335204 0.50008625 -0.10268442 0.11006305 -0.05267458 0.8636017 -0.47621417 0.104221664 -0.14001076 0.83801854 -0.27016285 0.0696578 -1.287193 0.4419427 0.062125314 0.4248327 -0.9268045 -0.04707836 -0.322895 -0.349712 -1.2152569 -1.1650476 0.28816473 -0.103071995 -0.18175429 0.33601597 -0.64765996 -0.011338714 -0.55546683 -0.24307333 1.1776134 -0.19181861 0.47806326 -0.8265497 -0.4976027 -0.3738309 -0.06955682 0.13100287 0.74621195 0.024056751 -0.38421163 -0.6517973 0.9023961 -0.91162485 1.1810694 -0.5516713 0.2717935 0.47476724 -0.038403485 -0.376355 -0.60366017 -0.8173967 -0.031083273 -0.0063753165 -0.108575866 -0.05559042 -0.009420853 -0.104907714 0.27651578 0.09677632 0.631201 -0.50497013 -0.27632254 -0.16091192 0.72027963 0.5133252 -0.15856068 -0.16606368 -0.4456828 0.69291663 -0.3877386 -0.0548887 -0.30273643 0.23960295 -0.38042325 0.024495877 0.39614445 -0.9873631 -0.4196452 -0.9979359 -0.30152354 0.5602769 -0.048517607 0.3021013 0.73508203 -0.4826588 0.25128078 -0.80817705 0.050713878 -0.12913083 0.88265955 -0.39042637 -0.65641904 -0.70048124 -1.8094312 0.107882075 -0.56950265 0.20656115 -0.012033389 0.012662929 -1.520754 -0.029464724 0.57557935 -0.5405231 0.044183083 0.83463424 0.97394073 -0.15715896 -0.9994914 0.8936185 -0.102545165 0.5072366 0.43843803 1.0131586 0.949006 0.24707273 0.8493629 1.5792822 -1.2844622 0.33235022 0.813245 0.8256443 0.07334137 0.46821418 0.574902 0.049777 -0.2704499 -0.13641396 -0.7183452 -0.1166623 0.31448647 0.45438886 -0.075158775 0.04687663 -0.47592342 -0.2211349 0.9934857 -0.40515345 0.9707065 0.25740427 0.9388586 0.41052058 -0.96149755 0.0121772885 0.4483907 -0.23913665 0.109714404 -0.5622085 -0.47547567 0.41409475 0.49584725 0.13471563 -0.7860273 0.44002476 -0.83348495 -0.189013 -0.005512225 0.15892489 0.7539882 -1.2345309 0.59845686 -0.19939621 -0.7869478 0.35808513 -0.20640941 0.90649164 -0.19816153 0.29077697 1.0915191 0.109306134 0.12929508 -0.34013996 0.6411016 0.019774538 0.43333167 -0.41699392 -0.6873527 0.037000872 0.3838069 0.49014646 0.12424972 -0.30318558 0.71474326 -0.31843936 0.15506957 0.22649221 0.43602714 -2.0787928 0.07387223 -0.2844603 1.4834335 0.5549145 -0.23009756 -1.097503 0.3870076 0.07977542 1.2198439 -0.365773 -0.49025702 0.07748982 0.89258295 -0.42136437 -0.4384489 0.5360893 -0.7140395 1.0652012 -0.9552684 -0.42158812 0.18636236 0.087054394 0.96876407 1.2910393 -0.27048376 1.0517623 -1.1257623 -0.9966213 -0.70486623 0.8877784 0.2244463 0.64170873 -0.5724625 0.2761146 -0.5782321 -0.8445113 0.37293622 1.5011197 0.47590008 0.09713964 0.1959965 -0.8748404 -0.29735968 0.7361408 0.8773365 0.49854186 0.7145644 -0.8119404 -1.3235271 -0.6130085 -0.61935574 0.47014493 0.20566632 -0.6366427 0.051445533 -1.0564648 0.060806654 -0.5296021 0.97903204 1.3085396 -1.3930143 0.17009431 -0.26010063 -1.3289883 0.4328557 0.6979949 0.43455604 0.29922774 0.7811977 -0.9511586 -0.13781115 -0.51821625 -0.026130619 0.686647 0.55082804 0.06815691 0.20640923 0.23072696 -0.13695036 -0.5124957
neckline -0.423614 0.0702105 0.49989152 0.81157017 -0.03090447 0.6457762 -0.66294914 -1.8838952 -0.21863583 0.65356 -0.48506862 0.2072816 0.07879088 0.0874293 0.5493739 0.2537323 0.5516279 0.5637303 -0.7166032 -0.72649777 0.23103479 -0.10356804 0.048391443 -0.52329195 -0.021514786 0.5492286 -0.7803402 1.2769734 -0.22458124 -0.65569174 -0.6501912 0.5163536 0.48802847 -0.23445752 -0.63603234 -0.5889918 -0.081528544 0.88820946 -0.4723113 0.08856331 -0.18916658 0.9840753 0.027923085 -0.5638262 -0.9339719 -0.32268107 -0.10476012 0.32889757 -1.3002092 0.58522284 -0.14916149 -0.63594335 -1.6518291 -1.2795527 0.30998453 -0.22580394 -1.188552 0.25256565 -0.827998 -0.762346 0.10930265 0.121722475 -0.09239596 0.5732337 0.4226579 -1.1422797 0.2761296 0.7639489 -0.059926927 0.28377974 0.5353949 0.3860191 0.63974845 -0.05777836 -0.39049724 0.5960818 0.21538481 -0.51110184 0.09882023 0.5523429 0.58056474 -0.7379006 -0.0014812363 0.2804397 -0.8539719 0.028276213 0.7139003 -0.8777221 -0.29349133 0.23007683 0.90069515 -0.78566974 0.17284071 0.005530773 -0.7136566 0.40154773 0.09690874 1.0247108 0.22433019 -0.39279747 0.1464906 -0.5374181 0.37867072 -0.22625004 -0.62480044 -0.61511326 -0.7162212 0.6697412 1.1839217 -0.6380759 -0.4885112 0.75781846 -0.76453656 -0.3262038 0.08205336 0.9295911 -0.056797914 0.21743792 -0.19390623 0.52864033 0.1388197 -0.21471304 -0.024859793 -0.49539348 0.15677361 -0.77337253 -1.108656 -0.48493198 -0.27781528 -0.6444724 -1.2381437 -0.16470924 -1.3932617 0.29028714 -0.21618636 -0.24839213 -0.1301609 -0.21127902 0.6068669 0.72530764 -0.68389565 0.9491697 0.47723797 0.12024738 1.0522349 1.0043944 0.48066598 0.36492005 0.16333391 1.0075572 0.8194797 0.7728628 0.64333296 0.57744294 0.087838486 -0.6547461 0.7259917 -0.2400678 -0.22522986 -1.8390654 -0.26956975 0.10484047 0.8460339 0.13906662 -0.30658734 0.28953013 0.8158723 0.6749502 -0.05180525 0.10211014 0.48498446 -1.0257881 -0.25276077 0.053033985 -1.1899129 0.6437398 0.1122194 -0.71071917 -0.46049613 0.55250216 -0.16326195 1.5728374 -0.23809883 -0.6946831 -0.30145663 -0.72167253 0.00017108307 -0.016243242 -0.29753795 1.0206147 0.0043891794 -0.57276154 0.02602836 -0.119341955 -0.65721464 0.61658347 -0.13170353 0.17326213 -0.8440102 -0.28712934 0.71621233 -0.9777736 -0.11418435 0.21819372 -0.55673593 -0.16013077 0.5576881 -0.033483975 -0.9586527 0.46492785 0.7062919 0.4798151 -1.1648216 1.2559495 0.1512449 -0.1532659 0.5349581 0.9508676 0.26620492 -1.3212848 1.0372113 -1.0174263 0.08419561 -0.13846982 0.6353334 -0.304661 0.7196242 0.6083166 0.94042575 0.4913975 -0.08688119 0.8898419 1.085238 -0.6336081 0.6586144 -0.4905851 -0.59782624 0.9064128 -0.08718822 0.36577192 0.10353871 0.6014235 0.5243465 0.3761624 -0.25090224 0.7615693 0.018056003 0.25753212 0.3604274 0.17217864 -0.7044426 -0.11561944 0.25882888 -0.70538616 0.6787451 1.0120375 -1.1231139 1.2780603 1.6097708 0.5639125 0.35227007 -0.9998178 -0.15104482 1.1245028 0.23884222 0.004477424 -0.35474208 0.02574586 0.13942674 -0.3994806 -0.9537074 -0.15863322 0.07161311 0.010875626 -0.30633524 -0.27091596 -0.18766351 -0.789666 0.7846126 0.76958895 0.14541695 0.73116064 -0.88322985 -1.478822 0.23688756 0.22193135 0.97163016 -1.1127894 0.9207713 0.52715355 0.17720914 -1.0096657 0.045534752 0.16401209 -1.0747703 -0.67085433 0.48904246 0.7905026 0.8211694 0.2280483
tank 1.1925137 0.8410587 0.30712378 0.7011211 -0.28382957 0.36000666 -0.45537248 0.5412444 -0.36568525 -0.5465725 -0.10867597 0.84691405 0.17949727 -0.83429116 0.5430608 0.31023145 -0.39485 0.57091326 -0.25227755 0.2728548 0.5113892 -0.8129103 0.010069946 -0.030836593 -0.5501608 0.20988388 0.6551066 0.1911826 -0.09704741 0.32673588 -1.4285761 -0.2806067 0.35963574 -1.2010821 -0.05122035 0.7934574 -0.4549819 1.1465673 0.06050006 -0.05798198 0.109577306 -0.19978961 0.20741603 -0.5677465 0.14795956 -0.193419 -0.028833764 -0.06513972 -0.8133174 0.55021316 -0.77121484 0.5719206 -0.8920657 -0.8010935 0.5202045 -0.31494746 -0.14687742 -0.18212076 -0.015187491 -0.2606579 -0.27851242 0.136749 -0.26578686 0.13013874 -0.065445445 0.062489897 -0.10354009 0.38409454 0.60474885 0.13381618 0.15669382 -0.54485655 -0.14615187 0.18351017 0.6963579 -0.5656196 0.9235026 -0.0320999 0.98686737 -0.05034359 -0.086781584 -0.37057412 -0.65930194 -0.34509188 -0.21493152 0.23922658 -0.6872747 -0.22328736 0.5187963 0.21540989 0.14638613 -0.14982885 1.0003203 -0.4130108 0.44145343 1.2522942 0.50900227 0.14893675 -0.7831841 -0.22595294 0.15003124 0.15937261 -0.574025 0.77627957 -1.0413493 -0.35270745 0.43079096 0.21196602 0.2948349 -0.41363043 -0.8548018 -0.6238965 -0.05591863 0.35223013 0.26675233 -0.7191111 0.23380305 0.7864587 -0.46282256 -0.17008454 0.09080867 0.4621525 0.91386676 0.23706293 1.0405331 -0.49256462 -1.5145526 0.77849346 -0.32191452 0.06973813 -0.47752744 -0.018309997 0.0497492 0.10865408 0.20253809 -0.43008885 0.40744573 1.2248771 1.1769907 0.3438554 -0.58345723 1.0437524 0.33737746 0.61076856 0.4580556 0.5554997 1.2357768 -0.3520269 0.5018953 0.9384454 -0.39361495 0.0735121 0.46453503 -0.5512514 -0.44249776 -0.3499001 1.0458338 -0.46184 -0.18956515 -0.56029105 -0.1772806 -0.5577007 0.71442235 0.19304243 -1.493667 0.28766716 -0.0945071 0.42564026 -0.021683335 0.23474906 -0.12160778 -0.95950586 0.2525302 0.1579002 -0.79742146 -0.33223954 0.7955805 -0.34600487 0.0068573467 -0.208065 -0.1492869 0.2268662 0.58578736 0.26420024 -0.6887822 -0.34441602 -1.2509063 -1.0698361 -0.9716017 0.5571406 0.2280873 -1.198183 1.301183 -0.6863026 -0.31603563 -0.27667972 0.43015778 1.0914956 -1.0327979 0.30530354 0.052218102 -0.37090462 0.044851366 1.0536953 0.425504 -0.31184354 0.28128242 -0.65175736 -0.30542517 -0.8619396 0.121467434 1.1351247 -1.0865686 -0.058918647 0.6560137 0.09274572 0.21568306 1.1647568 0.14083216 -0.78606844 -0.75974166 0.5174711 0.26750153 1.2324326 -0.056303456 -0.20883912 -0.37630323 -0.19641109 0.5342595 -0.07696427 0.21037577 -0.047679473 1.008749 0.023811815 -0.4916833 0.20594181 -0.5291293 1.0429376 -0.27724707 0.028536549 0.8087833 0.18137914 0.2638173 0.5582443 -0.14992818 1.3700278 -1.6231705 0.024506567 0.2333131 0.28210622 -0.03255625 0.4107067 -0.13698117 0.17750831 -1.1979635 -0.07748149 -1.1702 0.47393185 0.6484174 0.93093556 -0.72302985 -0.53472686 -0.86777574 -0.11513249 0.60211605 -0.58368033 0.96057796 -0.5493007 -1.1381805 -0.15024957 -0.17935139 0.07393968 0.47861487 -0.62415516 -0.16801992 0.25375044 0.41106898 0.22601603 1.1501704 0.40867755 -1.3961853 -0.07768741 0.48617965 -0.99771595 -0.36282247 1.1290058 0.6704948 -0.16488011 -0.0126962755 -1.6076764 -0.108371414 -0.5237132 0.28014278 0.4973304 -0.8666194 0.6271 -0.14191721 0.37745038 0.037139505 -0.3008825
pants 0.3222145 -0.59733135 0.81107277 0.39295077 -0.41896728 0.5416013 0.09736774 -0.40400353 1.0926697 0.7704868 -0.41127837 0.5731365 -0.013781131 0.44074142 0.23757634 0.11815274 -0.32922813 0.5701641 -0.36269277 -0.028996177 0.2547891 -0.90453357 -0.17109515 0.123592995 -0.49823415 -0.3271393 0.46570548 -0.07780281 -0.3013076 -0.4794023 -0.39162475 -0.28322807 0.9822309 -0.031138696 -0.13616453 -0.10313519 -0.5018558 0.4077384 0.18490349 1.1749796 0.50987273 0.23143888 -0.41265184 0.020304091 -0.62584674 0.35525393 0.78439766 0.36867347 1.1924132 0.41498867 1.4413558 -1.0986807 -0.57334006 0.13285539 -0.91920966 0.22861636 -0.84640914 0.5114396 -0.32671496 -0.36148304 -0.45719358 0.6795693 0.04995514 0.66951585 0.73704666 -0.7868907 0.02929293 0.85366285 -0.0008944703 -0.28710076 0.4538304 0.5746357 0.375521 0.20823486 0.6934996 -0.27515474 1.473495 -0.60812247 0.6714144 0.29618737 -0.27736086 -0.2906932 0.1952608 -1.1967568 -1.609521 -1.2192382 -0.8013301 0.8537589 -0.27467793 0.12042549 0.6652651 0.16697024 0.16272043 0.1880517 -0.23711881 -0.4857033 -0.10407868 0.26887086 -0.5385002 0.83821183 0.16568516 0.5003364 0.99153477 0.42254323 0.067749724 0.047303278 0.16391544 -0.19064616 -0.18705766 -0.98558396 -0.01802806 -0.11389185 -0.10296298 -0.17355695 0.34156746 -0.83799565 -0.13776757 0.4161698 0.2838922 0.2949114 0.35987255 -0.9794173 0.3413705 -0.3200304 -0.9569452 0.1290481 -0.8330484 -0.08835436 -1.1213223 -0.1319894 -0.5913368 -0.53498375 -0.47518307 1.4223113 -0.33257076 -1.338418 -0.25743887 0.5480342 0.5952811 1.0954571 -0.42949736 1.4441977 0.5006305 0.45207876 -0.87106556 0.30914432 1.5216557 -0.27644992 -0.14724201 0.28839108 -0.2232495 0.33031717 0.52018803 -0.6205212 0.033780303 -0.17434609 0.17429128 -0.5988269 0.23100951 -0.16697675 -0.59381527 -0.27346072 0.2217585 -0.4380662 0.2743235 -0.31713906 -0.046153452 -0.81587756 -0.43202418 -1.1035903 0.76708865 0.4660744 -0.35230753 -0.7751422 -0.29582506 0.23184355 -0.6633332 0.29562494 -0.093023844 0.24916032 -0.014803837 0.3252232 0.31353828 -0.31678662 0.10667373 -0.2305484 0.041894417 -0.055928655 0.7739809 -0.16744973 -0.18796436 -0.5459854 -0.38758394 -0.6264086 -0.103945285 0.14805837 -0.054688733 0.712253 0.76724213 -0.5708107 0.9802185 0.5855844 -0.17814745 0.1899007 -0.57474554 0.032117445 -0.46378657 0.05256027 1.0921166 -0.39846078 -0.47675627 0.6082043 0.12452253 0.1005867 0.05501538 0.8299885 0.4335378 1.1817843 1.4205118 0.17890567 0.34639737 -0.31201634 0.9681979 0.7466334 0.28445527 0.7789688 -0.12242625 -0.16637672 0.7589773 0.1925788 -0.8951614 -0.66160715 0.38244027 0.39791235 0.8984471 0.24985756 -0.42108825 0.21446441 -0.48590845 0.48678184 -0.0435256 -0.5167883 -0.35495684 -1.5910307 0.07183017 -0.09483524 -0.5929315 -0.94872767 -0.017176388 -0.02492818 -0.25899562 0.32815477 0.22016895 0.027334653 1.0216738 -0.12390262 0.30680302 1.0076644 0.13467045 0.8820739 0.3543175 -1.034148 -0.2859408 0.3936793 1.1092669 -0.24661501 0.12059537 -0.74849063 0.72562754 0.07617471 -0.5894861 -0.56285423 -0.37515512 -0.53308046 -0.45610347 -0.353268 -0.67027444 0.099240005 0.36658174 1.0844804 -0.28053695 0.44771367 1.2664946 -0.48511595 0.3080469 -0.3981306 0.39368245 -0.35948184 0.13021153 -0.6947606 -0.80004555 -1.3169 -1.2860425 -0.6487675 -1.5003375 -1.3841609 -0.4446744 0.32067898 -1.4545606 1.4509351
it -0.28361058 0.081436336 1.470415 0.48435488 -0.2930959 0.44937924 0.004641766 -1.2235216 -0.15194911 0.21122332 0.07864462 0.16275391 -0.42582142 -0.3788604 0.37970546 0.039433505 -0.23303674 0.010479939 -0.48396838 1.536179 -0.11823105 -0.33358467 0.04170402 0.14328723 0.29701737 0.5209615 1.0982955 0.81640166 0.8246455 0.72293645 -0.59739023 -0.49041077 -0.42576212 -0.47289237 -0.007278908 -0.7940071 0.28468904 -0.5058165 -0.06908884 -0.06536206 -0.04567437 -0.12148921 0.27937695 0.62530375 -0.8543599 -0.46384522 -0.23051809 0.22049272 -0.3310035 0.4179523 -0.4162261 -0.7397298 0.2799133 -0.88463235 -0.32807624 -0.63798136 -0.62874234 0.0571374 -1.2186646 -0.608318 -0.8150227 -0.6466711 -0.35886112 -0.5414817 0.7612799 -1.2667347 0.24274017 0.5638598 0.84396267 -0.6480544 0.38242632 -0.33124727 -0.19308116 -0.48988387 0.4332474 0.3443419 0.9395656 -0.27281338 0.59140193 -0.24393557 -0.22862035 -0.10566213 0.13447362 -0.85503745 -0.6449811 0.100247756 0.39908785 -0.22202925 -0.63362134 0.24959978 0.6441084 0.09099984 0.07014272 -0.80578905 -0.3837823 0.4753742 0.50959736 0.090071104 0.6344103 0.48980945 -0.35519227 0.18087915 0.13418564 1.0014235 1.081172 -0.19658051 -0.58447003 -0.044414572 0.20263705 -0.8264822 -0.5008901 -0.22850259 -0.43169388 0.6293985 0.28159422 -0.2586065 -0.27447182 0.91272837 0.6991247 -0.6359019 -0.747655 -0.4521178 0.032269005 -0.44130772 -0.11050867 -0.84823984 -0.46187568 -0.31784612 -0.45328802 -0.50610256 -1.0911294 -0.35051885 -0.6293307 -0.04783558 -0.08415013 -0.47708106 0.15223108 0.09266334 1.2326583 1.0459558 0.21778429 0.19298403 0.045984082 0.45514455 0.7276171 1.3317469 -0.49595162 0.6110951 1.0538021 0.76618344 0.66364074 -0.0016153064 0.96999353 0.14359866 -0.037263345 1.1468911 0.74449384 0.033189375 -0.8312302 -0.23494118 -0.06976937 0.6672304 -0.30415413 0.6728207 0.048237182 -0.96235675 -0.24067383 1.0496247 0.12453126 -0.3841058 0.7381449 -0.04140933 0.49853876 -0.031805295 0.15395023 -0.54391056 -0.6137207 -0.25296545 0.17589773 -0.13972762 -0.33037186 0.23213978 0.14534675 -0.3732999 0.47495845 -0.15735438 0.34175634 0.16576494 0.53419495 0.3557308 0.7894001 0.05687123 0.56228775 0.1447594 0.23598604 0.4599271 -0.7253254 0.6994556 -0.36223137 -0.056309927 0.43337357 -0.0006547565 0.8674541 -0.2188077 -0.45445824 0.124501705 -0.047468577 -0.25440446 -0.53695995 -0.050745398 -0.44465557 -0.12109226 0.2036967 0.006056942 0.31263268 -0.18396798 0.44506192 0.7416112 1.1688914 -0.97442085 0.5309885 0.3839119 0.57287776 0.4204728 0.3086295 0.3135453 0.8851126 0.06480245 -0.198712 -0.18039986 -0.6749268 -0.08047001 0.25756449 -0.6732066 -0.085782744 -0.38582498 -0.24866574 0.022572752 -0.23528932 0.22349863 0.1311671 -0.2840004 0.5505254 0.04352308 -0.008879382 1.2137927 -0.6904086 -0.828785 -0.6920169 0.81309456 -0.3560029 -0.30971962 -0.3274126 -0.3906116 0.29392505 -0.24800862 -0.31823078 1.7625277 -0.31473356 0.5558885 -0.42735735 -0.023537304 0.19005503 0.16872959 -0.05627073 -0.59299904 0.89563185 0.27476856 -0.7576484 0.06993938 -0.37510216 -0.26187366 0.35991147 -1.0625268 -0.39661756 -0.5497434 -0.0058243233 -0.12148369 0.05305219 0.38398704 -0.4393257 -0.105527915 0.085834965 -0.18422687 0.35586914 0.59172577 0.13048978 0.15795235 0.93828595 -0.5656091 -0.074091576 -0.8554773 0.6280664 0.33544445 -0.4054352 0.04313402 0.66795 0.029053139 -0.09708165 0.072514564
pure 0.15793107 -0.21051566 0.047175005 0.118969984 0.02294521 0.38461572 -0.2881477 -0.96523815 0.6772671 0.283329 0.62631863 0.15290876 0.42101195 -0.16518171 0.21773994 -0.078384005 -0.99089277 0.0001246016 -0.17811513 -0.17613952 -0.06743828 0.6127639 0.2582445 -0.13892964 -0.24637151 0.55222774 0.60834223 -0.3240818 -0.31449386 0.7217744 -0.004889337 -0.1546034 0.36270073 0.07493694 -0.14128853 -0.15917073 -0.73153263 0.7524971 -0.15230672 0.00588514 0.47616962 -0.4127901 -0.3127505 -0.2799633 -0.38888866 0.51489043 -0.1540381 0.46153474 -0.6521846 0.19140707 0.3145892 0.15967664 -0.93109083 -0.6214492 0.017162852 -0.4403414 -0.015741086 -0.029612325 -0.41309875 -0.50753313 0.4771587 -0.0040811477 -0.8109673 -0.11424603 -0.0020925715 -0.49220142 0.54643244 -0.12635976 -0.17555511 -0.23880729 -0.24790081 -0.8642595 -0.5279001 0.40725264 -0.55414927 -0.07349036 -0.39407066 0.3424467 -0.062092144 0.39187652 0.5482685 0.33221206 -0.0591828 -0.91915774 0.1945279 0.02466212 -0.12201005 0.56950265 -0.36914334 -0.77178097 -0.012090212 -0.25672528 -1.1003528 0.48541802 -2.0169919 -0.2784922 -0.8821457 0.2818252 -0.2878053 0.5511109 0.19018967 -0.46674383 -0.08065774 -0.07579869 0.099629186 0.17754894 0.116779886 -0.43687177 0.3195268 -0.12504093 0.1910677 0.29663712 -0.23419915 -0.33865708 0.39105594 -0.73536366 -0.43751708 -0.1389532 -0.36659512 0.5286233 0.3905874 -0.17911017 -1.1008104 0.25909624 0.47314832 -0.50196606 -0.21550252 0.23992717 -0.5114975 -0.1378599 -0.36446017 0.47037706 -0.058531884 0.48840356 -0.09824879 -0.10132058 0.22449787 -0.051361967 -0.46473357 0.64944065 -0.6628862 0.22387893 0.082104094 -0.16773643 0.10854933 -0.25379717 1.0984266 0.5505733 -0.5454658 0.83128846 0.502085 0.0980879 0.91365373 -0.5940364 -0.8476007 -0.2634388 -0.09117059 -0.24267754 0.17523932 -0.08670801 -0.037236094 -0.20034945 0.10019189 -0.7067015 0.0760038 -0.5167525 0.12969731 0.340617 -0.01844429 -0.1759893 -0.071022436 -0.013303352 -0.5949464 -0.34355024 -0.19737789 -0.18283534 -0.45504016 0.3430615 -0.054444972 0.26825356 0.17913629 -0.07510603 0.6214575 0.11197737 0.7636961 -0.31960934 0.18245524 0.048178293 0.40022138 0.5183683 -0.042492133 -0.5375606 -0.20142348 -0.2035292 -0.49773657 0.6348104 1.1091652 -0.36227578 0.7678113 -0.74549466 -0.30605257 -0.08147549 -0.0152084455 0.095302835 -0.3906919 -0.6633314 -0.17236847 0.52977556 0.24477404 -0.23382469 -0.11035985 -0.7131059 -0.53677076 0.33677888 0.0059071276 0.21494189 -1.0604185 -1.4133774 -0.6754687 -1.0295172 -0.045411162 -0.37076452 0.8617914 0.20586118 0.25540438 0.21601284 0.43624657 0.5960826 0.28225106 -0.27755666 0.040352866 0.20170143 0.16560662 1.0596453 -0.32912043 -0.70595336 0.9952532 -0.7498172 -0.23411274 -0.4320663 -0.42517987 0.4242024 0.18903413 -0.10037701 -0.18239793 -0.05343755 0.43417537 -0.13344714 0.3210081 0.46770594 -0.8733876 0.37038928 0.52987164 -0.3195598 -0.5284271 -0.38432014 0.16387722 0.56553614 -0.054403577 -0.6129318 1.077165 0.19767646 0.5759337 0.27408558 0.05949261 -0.5544472 0.82967925 1.0703127 -0.5648633 0.54636914 -0.40168414 0.22391531 0.1974528 0.53349173 -0.30361637 0.36395472 -0.532525 -0.28423414 -0.052055947 -0.286359 0.11958495 0.0269765 0.5968689 -0.7332293 -0.002471629 -0.9920949 0.9210201 -0.90257806 -0.39061016 -0.37601447 0.18054602 0.21222533 0.135724 -0.014259812 0.5309132 0.71539015 0.88688904 0.1693627 -0.056487445 1.0178185
solid 0.13808797 -0.28890616 0.013979479 0.15723507 -0.011512781 0.39096677 -0.3945408 -0.95802087 0.7199913 0.32109588 0.53079605 0.14207591 0.45653334 -0.29618654 0.16516814 -0.0014960318 -1.0637485 0.0458293 0.036545694 -0.19846724 0.027813818 0.69652295 0.10730677 -0.22793941 -0.17629658 0.58214873 0.6623239 -0.2619083 -0.22497831 0.74086994 -0.009960918 -0.13715598 0.44464466 0.13434534 -0.20378098 -0.2717163 -0.7136015 0.8162678 -0.15055232 -0.023456845 0.40688595 -0.32261267 -0.18232335 -0.20052777 -0.42507538 0.35036612 -0.14739121 0.4037183 -0.6764442 0.124987625 0.30401495 0.17540485 -0.95809674 -0.6099702 -0.0065608555 -0.49544376 -0.037634 -0.078412876 -0.41235682 -0.46870017 0.46462852 0.019571414 -0.7188218 -0.12684757 -0.055612367 -0.507846 0.4279135 -0.15303172 -0.14981647 -0.17250265 -0.3501855 -0.96206695 -0.48600814 0.3103362 -0.5071805 -0.03453641 -0.41738048 0.4264595 -0.084888764 0.4593861 0.5221178 0.34417754 -0.15949191 -0.79435235 0.15174562 0.049498085 -0.13792191 0.5817669 -0.3668823 -0.70233756 -0.0051793824 -0.24503778 -1.056102 0.50410867 -1.9442058 -0.38449737 -0.86012655 0.28208095 -0.15673184 0.44303915 0.22821046 -0.5176901 -0.05762587 -0.24418697 0.071995094 0.17345473 0.06742487 -0.5294554 0.31163242 -0.13727647 0.2590369 0.29304543 -0.19176656 -0.46033123 0.47174636 -0.6180914 -0.33720887 -0.08839024 -0.4009566 0.56136465 0.38173413 -0.13650405 -1.1533796 0.26437128 0.42658243 -0.5276521 -0.21085517 0.121172026 -0.5085193 -0.09766347 -0.43361333 0.41364503 -0.12258591 0.5128277 -0.13397427 0.011592029 0.20301685 -0.1568859 -0.40982145 0.48948348 -0.6967533 0.1485287 0.189788 -0.091308825 0.12995566 -0.21628234 0.983116 0.51556975 -0.53011775 0.76574206 0.48198733 0.017559737 0.91558284 -0.6035703 -0.8688169 -0.26168883 -0.17807682 -0.2180452 0.17229386 -0.1512663 0.015693009 -0.082644 0.07294028 -0.6045203 0.14088435 -0.49867326 0.116008766 0.28366643 -0.08120637 -0.22812471 -0.05608538 -0.10266293 -0.73583823 -0.29029635 -0.24981342 -0.0676209 -0.42057288 0.36092833 -0.08686907 0.33014593 0.23674189 -0.10729841 0.5668815 0.15637358 0.73926294 -0.25377586 0.15766406 0.032393593 0.4304721 0.59797883 -0.017060133 -0.49903208 -0.2658334 -0.13320263 -0.56435895 0.6205208 1.1373365 -0.3405565 0.73096365 -0.87409073 -0.22502895 -0.1511336 0.018288782 0.10762638 -0.33203155 -0.64616144 -0.14552608 0.5409327 0.3018723 -0.20585042 -0.0083059 -0.6481406 -0.61235017 0.34267884 0.011458606 0.23239961 -1.0015398 -1.3579942 -0.5824403 -1.1291674 -1.9204866e-05 -0.4963272 0.93931895 0.15116306 0.1676308 0.26876548 0.40819636 0.6572912 0.4026982 -0.20229895 -0.0062601855 0.26626006 0.34314886 1.1352578 -0.39445588 -0.734831 0.89317775 -0.6981333 -0.2892094 -0.34872323 -0.51405126 0.42564386 0.14384286 -0.11814117 -0.2010304 -0.019283334 0.43002796 -0.2537085 0.27115348 0.5382822 -0.8949729 0.3561924 0.44704604 -0.2408248 -0.42828527 -0.2614638 0.06614682 0.55646825 -0.006635409 -0.6347843 0.925938 0.21027319 0.4573626 0.28790674 0.0705029 -0.49454957 0.79567397 0.9580447 -0.5041022 0.43237707 -0.48936522 0.23552927 0.24538216 0.5382137 -0.27695793 0.30136874 -0.51331097 -0.32106045 -0.0732579 -0.37353468 0.2123962 0.010678896 0.50061274 -0.6473463 0.06460896 -0.9421309 0.8879593 -0.89791787 -0.36013165 -0.31824338 0.1800525 0.19762258 0.17380336 -0.00410717 0.56710666 0.6351379 0.8235995 0.220833 -0.0388422 0.9872152
are -0.5966264 -0.63443774 -0.4488181 -0.32478407 -0.6106326 0.43787247 -1.7382469 -1.8180037 0.040496357 0.08960085 -0.051417828 0.8151952 0.9136091 -1.0772402 0.27679372 -0.021082742 -0.6266899 -0.77672344 0.5241686 0.11656574 -0.3851892 -0.550743 -0.6280682 -0.24690704 -0.13509311 1.2087982 -0.5117311 -0.42336804 1.0621552 0.14050661 0.45459998 0.18301043 -0.27108648 -1.1662765 -0.25730154 -0.2928301 -0.53991 -0.17482752 -0.30813152 -1.6800989 0.19553205 0.60358125 0.48325038 -0.16458309 -0.09969982 -0.40322462 -0.39833096 -0.42148653 -0.75119555 -0.89059305 -0.3676895 0.6767038 -0.47174755 -1.0500809 0.39487898 -1.1422551 -0.6946747 0.6658482 -1.7816135 0.20448874 -0.5023977 0.14812735 0.5692203 -0.23890555 0.53601664 -1.842788 -0.47055724 -0.07545549 1.3681084 -0.14365633 -0.51915973 -1.087399 -0.31951675 0.27112263 -0.39195672 0.8640761 -0.217962 0.7363301 1.3355553 0.49189353 -0.9069461 -0.13893472 -0.41033763 0.46473652 -0.5623818 -0.43535522 0.25703883 0.73090684 -1.096468 -0.024919333 -1.0820726 -0.069690734 0.034610983 -0.611365 -0.8441128 -1.1781968 0.030746058 0.366494 0.753742 -0.2135092 0.8656352 -0.56857085 -0.6809656 -0.13880602 0.47893333 0.99899787 -0.12945765 -1.0871954 0.35078138 0.9773101 0.6175568 0.33125868 -0.92813087 -0.43837085 0.7181704 0.5024769 0.20764734 0.17629181 -0.6355645 -0.17003277 -0.7411183 0.6830088 -1.1809139 0.16317199 -0.8043513 -0.30148074 0.08750531 0.8242283 -0.5052035 -0.6742757 -0.6667229 -1.0944949 -0.1346 0.67036253 0.46333632 0.42255828 0.5253272 -0.2725451 0.6886248 0.6113404 0.6923798 0.46158236 -0.1336931 1.0981772 -0.33131033 1.1427349 -0.13854831 0.37638196 0.11236716 -0.52721965 -0.10514394 -0.080970235 0.8920994 0.08281683 -0.33947513 0.87103915 -0.42638472 -0.15186113 -0.65592676 -1.5045084 -0.62520385 0.17371444 -0.6704484 0.09551706 0.22394405 0.29019085 -0.41524702 -0.59970695 -0.5666251 -0.37773106 0.0232974 -0.41868755 -0.47496065 0.017901955 -0.0016844852 -1.1652355 -0.15710832 1.0159447 -0.11987026 0.4460905 -0.6377038 -0.43289903 0.41251382 -0.46750128 -0.23469128 0.03605181 -0.07400058 0.27114066 0.40186173 0.719336 -0.778591 -0.36627874 0.007700373 0.061918885 -0.36703247 -0.2206096 -0.0037931718 0.9853286 0.13093139 -0.19571169 -0.2577208 0.32576448 -0.033120412 -0.02116313 -0.2899022 0.26353645 -0.42594546 -0.8852277 -0.1996952 0.8071334 0.13079545 0.15371875 -0.268964 -0.13439424 0.84678066 -0.7179197 0.06302676 0.304089 0.25844687 -0.57028383 0.29109973 -0.17164004 0.9869421 1.028391 -1.0913665 0.6696373 0.8490889 0.4910187 0.8380925 0.6425758 0.7105402 -0.4680993 0.8076682 0.2129134 -0.44177577 0.28628513 -0.7664067 0.43900627 0.36146182 -0.25616726 0.30524647 -0.7703978 -0.4249448 -0.48751056 -0.10419027 0.6033393 0.23562455 0.16726461 -0.7885744 0.84691006 0.24911678 -0.038294256 -0.08369233 0.3839158 -0.007004593 0.9780461 -0.9697511 -0.016449839 0.18069653 0.328769 -0.32841754 -0.061747927 -1.1043465 0.88803333 1.653237 0.66727614 -0.052942164 -0.210268 -0.076318815 -0.018210212 -0.024251077 0.0438969 0.49981302 -0.5491433 0.42752373 -0.0082974965 -0.55864394 0.6028301 0.11249177 0.10924536 0.47887415 -0.7989842 0.020892462 -0.2677697 -0.1554193 0.019760601 -0.5137223 0.0054643787 0.56683826 0.46206632 0.10571719 -0.62038696 0.8945876 -0.628301 0.01882648 -0.8199699 -0.38423967 -0.66557175 -0.32824486 0.7196873
of 0.54229724 0.86626536 0.68483245 -0.064432465 -0.69413465 0.43440953 0.6427637 -0.80606526 -0.5554522 0.30210626 -0.0244824 -0.26081666 0.5940951 -1.0933459 -0.11156658 0.62884384 0.172432 0.18414035 -0.8112558 -0.6033388 -0.15648532 0.5139258 -0.61247754 -0.0402659 -0.96917695 0.63266665 -0.70996344 1.2589154 0.024760049 0.45553443 -2.0367002 1.1141956 -0.46822435 -0.57875806 -0.4760085 0.20277603 -0.20675167 0.7080077 -0.5179588 0.093254656 -0.3072616 0.19116716 0.13664337 0.5478694 0.08684824 -0.32459354 -0.22676046 0.5098912 -1.2571058 0.3549532 -0.31167123 -1.1216077 -0.29474556 -0.59446394 -0.3451032 -1.1984785 -0.22049317 0.13901311 -1.1767932 0.14747593 -0.35157913 -0.49418572 -0.61352843 -0.23033178 0.88870853 -0.7825084 -0.24483301 0.7184783 0.027473276 -0.59744537 0.79551977 0.08913523 0.5653915 -0.40594462 0.3480792 0.33690882 -0.5858126 0.34182057 1.354041 0.17368793 0.19649296 0.2141202 0.10719723 -0.49342403 0.32886484 -0.7790056 0.6452554 1.0189666 -1.0003861 0.20162684 0.38323885 0.43762243 -0.5463368 -0.18127862 -0.41166794 -0.15172257 0.30477175 -0.28368807 0.55316776 0.976043 0.52590305 -0.37011692 0.2964349 0.61926377 0.35797167 0.39670512 0.60470897 -0.2381266 -0.33392122 0.3050779 -0.18877259 0.3641571 -0.7399728 -0.034250055 0.015104226 -0.4719175 -0.19903664 0.34465742 0.86733896 0.13094921 -0.51448625 0.4784216 -0.38121718 -0.3621571 0.1003331 -0.26328987 -0.2880123 0.08566511 -0.8306466 -0.3844987 -0.94053364 -0.61786443 -0.2030591 -0.30355975 -0.32147434 -0.34655026 -0.31561008 -0.19405107 0.73763686 1.1896096 0.87905073 -0.33283687 -0.047037367 0.19421817 0.9414689 0.592611 0.33884445 0.6731891 0.5163334 0.78097695 0.16516289 1.2017282 -0.08593684 -0.18858972 -0.48814216 -0.42403516 0.11933229 0.54309297 -0.034141112 -0.85878044 -0.4400328 0.7744295 0.4424825 -0.4714682 -0.41317534 -0.3541472 0.2659209 0.1032406 -0.1215697 -1.2087796 0.7399274 0.060995698 -0.18019757 -0.4145314 0.031352375 -0.6296237 0.23161669 0.62711877 -0.6039997 -0.55798256 -0.3786164 0.80718964 -0.17882559 -0.79190195 0.7713722 -0.394546 -0.31553552 0.27519354 0.054583475 -0.03627404 -0.16330992 -0.33755425 -0.0028412999 -0.23532867 -0.14398223 0.90765667 0.33141848 -0.08531543 0.22964561 -0.7241179 0.060011707 0.2742911 0.52041245 0.12824646 0.07271029 0.659582 0.4248915 0.4064656 -0.08837992 0.18241493 -0.12005893 -0.24124607 0.048951887 0.569038 0.15079911 0.21650723 0.9488869 1.6296664 0.5693489 -0.6374594 0.3647884 -0.09973266 1.008805 0.100125454 0.09558297 0.29156426 0.6019589 0.5971356 0.44438055 1.05098 0.39651972 -0.48042017 1.2246485 -0.44091386 0.8217954 0.075949565 0.43660077 0.074925125 0.6377108 -0.12303723 -1.3721725 1.2361997 0.090863265 -0.0024005163 0.16847144 1.8657826 0.3810083 -0.4233188 -0.055861805 -0.66565716 -0.089797035 0.15803033 -0.7733289 0.0014500278 0.69541264 -0.61923546 0.0106312595 0.27124006 1.2058274 0.085495956 -0.070120156 0.1673024 -0.6392494 1.1396478 -0.047417942 -0.60268384 -0.90030354 0.303414 0.24151991 0.29793248 -0.7583563 -0.99513006 -0.73387325 0.35174793 -1.2540686 -0.34498495 -1.1384159 -0.78960705 0.24415898 -0.01901573 0.4182147 0.023227042 0.8396613 -0.06117114 1.6383544 0.58797705 0.10093287 -0.44063246 0.267106 -0.18024313 -0.1303645 -1.3014661 0.028653892 -0.84958696 -0.4796941 -0.6420519 0.23838793 -0.6344445 0.42072096 0.7496726
an -0.4378261 -0.051973026 -0.75544846 0.0050887847 0.036271464 0.51683754 -0.9540191 -0.17007783 0.27844828 -0.26419222 -0.05588297 0.61280084 0.67572427 0.5477302 0.1744061 0.92493314 -0.96651983 -0.01748489 1.4612683 0.005291338 1.215796 0.09974228 -0.9469772 -0.29632524 0.13635737 0.03516496 0.5353944 -0.76242846 0.63310415 0.19683859 -0.22245023 0.11017841 -0.20075789 0.36267826 -0.18040098 -0.024123246 -0.31139398 0.44373146 0.2709313 -0.34724963 -0.07196941 0.38080108 0.11403073 1.0886066 -0.5785746 -0.40594292 0.005027347 -0.015588275 0.5043241 -0.68834496 0.7425109 -0.28738204 0.25215822 -0.046280466 0.23181216 -0.47275928 0.7643623 0.14654139 0.07833784 -0.30751428 0.6416414 0.6483601 0.04913329 -0.629263 -0.22140858 0.12827598 -0.2646156 -0.200729 0.34065908 0.103395104 -0.43324748 -0.061880518 -0.39681503 -0.22141506 0.2163521 0.004423997 -0.35161573 0.039472457 -0.30540293 -0.036771487 0.19674088 1.0361265 -0.91008735 0.14635845 0.5890711 0.106740095 -0.08054563 -0.37974072 -0.25137573 0.87480253 -0.5153176 0.17648847 -0.61282235 0.37425828 -0.18816192 -0.20237152 -0.5170321 -0.7958996 0.9536303 -0.38846585 0.47805983 -0.47152686 -0.19653678 -0.95450836 -0.45690942 0.03170336 0.3895173 -0.88695455 -0.3378874 1.1994727 0.54667646 0.39982903 1.1320907 -1.5671337 0.94049084 -0.7359413 0.6684661 -0.3411698 -0.8987505 0.62541604 0.3177539 0.18761021 0.00014615626 0.9160652 -0.050183907 0.45924228 1.3002023 -0.79762745 1.0271822 -0.19273184 0.97128004 -0.72886425 0.37911436 0.66111714 -0.78192854 0.9553949 0.484145 -0.105303556 -0.9558801 -0.37976727 0.1380206 0.25024584 0.18807064 -0.58475715 -0.8670034 0.32697362 -0.1847965 -0.359705 -0.842244 -1.080745 -0.25606632 -0.88072264 -1.5441304 -0.5808771 -0.06316508 -0.7821301 -0.730058 -0.736847 -0.78601813 0.47712082 -0.04875633 0.5381299 -0.7925252 -0.2672266 1.1325749 0.68817514 -0.25714645 -0.6516542 -0.65753216 -0.42313185 -0.52333957 0.40990973 -0.4999782 0.04545324 -0.47749928 0.5670871 -0.35593864 0.8141386 -0.10912582 -0.20837586 0.43722588 -0.86063516 -0.9882462 -0.054053076 -0.6802307 0.47271127 -0.32650882 -0.23969115 -0.6684528 0.3473004 -0.042152733 0.343945 -0.024318784 0.5843012 0.137934 -0.55374205 0.75250053 0.2669619 -0.30227792 -0.478076 0.2309397 -0.1768099 0.23409279 -0.3471512 0.94207996 -0.3344272 -0.2465709 0.2304861 1.2458783 0.65996826 -0.43880787 -0.11619434 0.08836739 -0.42764333 -0.43234706 0.6585309 -0.2743307 -0.5410709 -0.6163467 1.2292988 0.55797803 0.48404342 -0.20124441 -0.079921186 0.13741319 0.6558456 -0.80207866 -0.09943599 -0.18236667 0.14015515 -0.18402472 -0.07251775 0.104417816 -0.22284044 -0.28365555 0.7468723 -0.042001233 -0.027036516 -0.11724696 0.2173673 0.452352 -0.17694315 -0.40844908 -0.7121668 0.15197381 -1.2468493 0.70937216 0.16928263 0.3294093 -0.12113847 -0.30721435 0.26747757 0.409286 0.8918535 1.3591008 -0.017780865 0.5324924 -1.0930645 -0.1263075 -0.5765134 -0.38893768 0.25317618 -0.38134268 -0.43477595 -0.45498747 0.42666748 -0.7811224 -0.22991441 1.1974179 0.4952851 -0.4784776 -0.18799803 -0.47508565 0.47111517 0.61759895 0.6117361 1.1521306 0.2844934 -0.84837806 -1.1594982 0.9251996 0.065434575 -0.246019 1.5882597 -0.9384048 0.23325537 -1.0598259 0.8204908 -1.0496767 1.0036329 -0.23557301 0.35974935 -0.14748839 0.17233923 0.12705252 0.21046093 -0.5861786 0.8672018 -0.5731676 -0.8595875
person 0.1269547 -0.6368515 -0.21641399 -0.2711751 0.0049742246 0.4355337 0.5872396 -0.52613616 0.45536125 -0.12120856 -0.29586452 0.40577745 -0.10821584 -0.5622983 0.14415954 0.22985439 -0.3703467 0.68676037 0.056898326 0.087027505 -0.05717717 0.72777975 0.116308354 -0.48365018 0.25553375 -0.069813624 0.13653457 0.16064182 0.23019668 -0.4751228 -0.9724314 0.24311776 -0.20425655 0.48163727 0.096823655 0.18262248 -0.17737612 0.7176321 0.21217829 -0.5532836 0.5147654 0.3803866 -0.009237016 -1.1259235 0.3815623 0.30401438 -0.32188466 0.18748827 0.13874409 -0.41986734 -0.7504096 0.27308595 -0.2844376 0.2723247 0.5507058 0.28716737 0.23126033 0.13680796 0.10669651 0.57736254 -0.22594838 0.087725185 0.7640644 -0.08735321 -0.06588107 0.20221743 0.09580092 -0.4163608 -0.2427467 0.4959864 -0.22298102 0.10653035 0.4705793 0.43098122 -0.006814163 0.053340465 0.32847264 -0.30684134 0.10574573 -0.12412516 0.08070827 0.28810126 -0.041690502 0.07331768 0.02018881 0.17380677 0.01508232 0.022405067 0.7486374 -0.00746139 0.040808022 0.29668123 0.7664425 -0.44214088 0.2833542 -0.024381464 0.16957462 -0.31185785 -0.0936729 0.1435826 -0.14413011 0.42475942 -0.2662111 -0.37589583 0.0152008785 0.015369271 -0.20796308 0.021905854 0.03561953 -0.0092371525 0.116924495 -0.17882904 -0.16838086 0.032914825 0.38199303 0.19735757 -0.8703338 0.1827733 -0.033963427 -0.50676596 0.26209468 0.31866953 -0.06913071 0.62793994 -0.7258959 -0.80817634 0.3424078 -0.18678954 -0.23181853 0.07291139 0.052283965 -0.24987936 0.12672402 0.4001813 -0.0654489 -0.5823395 0.17512229 -0.14838955 0.26802096 -0.3123823 0.34088674 0.5140484 -0.36329958 -0.3788298 -0.42159274 -0.39441612 -0.24684168 0.030004298 0.25714988 0.029269459 -0.25458115 0.098085634 0.8484961 -0.10732626 0.19735703 0.3694177 0.3380302 0.1251973 0.675636 -0.5589149 -0.012950537 0.1288705 -0.118409395 -0.381965 -0.6103743 0.36427984 0.15429133 -0.5163088 0.19002792 -0.39273158 -0.026344093 -0.15516599 0.1706683 0.21481857 -0.38307098 -0.0014011171 0.8307467 0.15092377 -0.3638516 -0.3573398 0.0481754 -0.24434711 0.41906926 1.2481573 -0.35834578 0.13126287 -0.29804894 -0.11619964 0.46366692 -0.29927456 -0.5648429 0.122096255 0.5723151 -0.17190939 -0.1843652 0.28889263 0.10431297 -0.07198237 0.28782737 -0.22578241 0.27980062 0.35797718 -0.66280913 -0.29410487 0.98358077 0.2885521 0.15381885 0.112958945 0.25170782 0.08007543 0.16100837 0.1326537 -0.31341195 0.3285996 0.6451451 0.12954742 -0.747928 -0.08772697 -0.5415511 -0.35297555 -0.567541 -0.28938857 -0.17032139 0.4489157 0.28492162 -0.4242265 0.1438388 -0.30129793 -0.17247808 0.023659356 0.03966353 -0.25113493 0.22609974 0.27493727 -0.730632 -0.053038932 -0.37181434 -0.40591505 0.16895454 -0.16638102 -0.49997443 -0.29601377 -0.10799099 0.24559496 0.13402498 -0.079907246 0.11432707 0.06355238 0.38411835 0.95455486 -0.20073338 0.5827026 -0.58253866 -0.27432963 0.449372 0.2670557 -0.20672907 0.00891832 0.24965009 0.4590005 0.47365245 -0.53224665 -0.43072304 0.15435788 0.38835502 0.56598574 0.1896794 -0.6822792 0.12324649 0.16171111 -0.36786333 -7.763229e-05 -0.32612827 -0.06581915 -0.14259438 0.252021 -0.11099963 0.09499379 0.29638484 0.20811015 0.29101557 0.43980247 -0.4420764 -0.39250267 -0.36543038 0.14214948 -0.17023803 -0.015255067 0.6748242 -0.25151452 0.45899966 0.25386816 0.20805027 0.049218968 0.5788483 -0.33984822 -0.19355318 -0.5783264 0.1418862 -0.47001028
ring 0.10058844 0.40395254 -0.0012668772 -0.44962564 0.08232106 -0.83732516 -1.5995513 -0.9505897 0.25759774 -0.5543717 -0.0016055045 0.18505518 0.79617125 1.1603909 -0.092838466 1.7716975 -1.9497497 -0.06706582 0.045102883 -0.48116675 0.22359811 0.2996743 -0.62087613 -0.12663814 -0.7597788 0.2723389 0.37203604 -0.043785173 0.09303072 0.85907745 0.4748244 -1.0154428 -0.110044345 -0.0040230425 -0.15188186 0.3772346 0.020516882 0.26584226 0.77595055 -0.4610924 0.22269566 -0.27169847 -0.7913773 0.3220018 0.7895407 0.08556313 0.20218728 -0.38772246 0.7783223 -0.73737544 0.7311362 -0.28019422 0.54682845 0.65328944 0.18652281 0.67022043 -0.08881494 0.022463975 0.6058595 -0.17231227 0.78426784 -0.34210384 -0.528663 0.89523053 -0.03870494 0.2880756 0.13811475 -1.2272618 0.32805333 0.65239394 -0.5984253 -0.34036338 0.041575257 -0.04319041 -0.55960226 0.072227284 -0.70211136 -0.25815997 0.17847589 -0.7794775 0.21259305 0.34926048 -0.40762815 0.2684296 -0.002508196 0.41674113 -0.65494746 0.08579632 0.28712663 0.9901807 -0.7654628 0.29237643 -0.4338676 0.35690206 0.4732821 -0.8060718 -0.40554124 -0.43062475 0.13911606 -1.1126827 0.39778653 -0.18021698 -0.4409962 -0.22751404 -0.21562108 0.47844464 0.54458433 0.018032223 0.07375562 1.6550391 -0.64255804 -0.10614748 1.126992 -0.99666786 -0.41445947 -0.2980083 -0.16155006 -0.18573998 0.06419285 0.07083499 0.21504952 0.4268487 0.42398325 0.2068609 -0.20976852 0.8621271 1.0925452 -0.28824642 1.1555263 -0.3624288 0.80613095 -0.08052606 1.5285202 0.98851377 -0.1334858 1.4878529 -0.6782677 -0.6333835 -0.17987855 -0.032512393 0.08028316 -0.717896 0.6251907 -0.40720382 -0.9236051 0.458783 -0.39065954 -0.35644156 -1.0781813 -0.9570296 0.0061381813 -1.0695075 -0.722592 -0.8698924 0.6441924 -0.5350894 -0.58845085 -0.2224602 -1.3018914 0.79954493 0.60603744 0.009315821 -0.75517976 0.28617084 0.9997405 -0.035807695 -0.26652882 -0.179352 -0.5288657 0.12043004 -0.014722081 -0.40005627 -0.5224894 -0.3781997 0.47836944 0.13900474 -0.6039379 -0.4451778 0.8306358 0.5231111 0.09631481 -0.9252008 -1.09339 0.0061230427 -0.18694113 0.04262904 0.90181094 -0.22268732 -0.38425362 0.063907586 0.59234846 0.27533942 -0.10604295 0.35161337 0.26752827 -0.53200257 -0.78679276 -0.26553208 0.29607052 -0.01004042 0.50218225 -0.18296891 0.467814 -0.109111086 0.8240467 -0.22756788 -0.34914517 0.77288145 0.42825517 0.1727379 -0.84116805 -1.2857006 0.40195364 -0.28566316 0.22566088 -0.22729117 -1.113739 -0.93490064 -0.20680383 1.0920426 0.09916445 -0.27503785 -0.42477274 -1.0499632 -0.02647798 0.42086965 -0.21893315 -0.291114 -0.4731241 0.056670673 0.59416825 0.040177315 -0.03943327 1.0238271 0.08027295 0.051941488 0.8030084 0.019368766 0.4438248 -0.083103895 0.36051658 -0.12505761 -0.88199556 -1.0424781 -0.39474764 -0.3732087 0.7912948 1.2262375 0.15277086 -0.25749362 -0.2990536 -0.6106769 1.3863597 -0.12365378 1.4417082 0.3572503 0.30122378 -1.0686055 0.081220046 -0.6064061 0.17277332 0.62197626 0.21737735 -1.4623797 -0.50345296 -0.68745065 -0.6092764 0.031875513 0.08878656 -0.014165247 0.74657625 -0.13434602 -0.17167717 -0.26848465 0.2700345 -0.4129561 0.20486455 0.4327059 -0.3562184 -0.48572156 0.82836205 0.19805068 -1.2438165 1.2826995 -0.49770862 -0.22205521 -0.32174128 -0.27246228 -0.36151233 0.21597101 -0.47731325 0.054794617 0.102364264 1.1200132 -0.42547742 -0.040526673 -1.2418039 0.12484847 -0.6006139 -0.8742604
long -0.5148254 -1.2193797 0.4545752 0.1613939 0.09585595 0.20122197 -0.5465344 -1.6660569 0.20433508 0.9995643 -0.8274308 0.6367184 0.059012678 -1.3264264 1.3820359 -0.14862694 -0.099075474 1.7709877 0.9496751 0.31606284 1.0909256 0.3631854 -0.7374966 -0.14101985 -0.79974645 0.77481806 0.92967856 0.3076433 0.9308045 0.050064825 0.31282043 0.05228324 -0.62525946 0.46955466 0.13160214 -1.0862658 0.18430954 0.92671543 0.0052699014 0.625909 -0.18297343 0.3355311 0.48469928 0.9505248 -0.6956036 -1.0221025 0.7786986 0.061538827 -0.64223313 0.924365 -0.5963731 0.04839075 -0.17781961 -0.54888517 0.07683896 -0.13887346 -0.27562648 0.9414793 0.08007019 -0.11051464 -0.26109606 -0.23895292 -0.0976935 -0.41829255 0.1833401 -0.95692307 -0.8046908 0.7635309 0.026727727 -0.71859956 -0.43735674 -0.5785328 0.5896061 -0.09393132 -0.64474773 0.054010414 0.35734674 0.5304032 0.30154657 0.05332245 0.28254646 0.88455725 -0.37545153 -0.28406018 0.36716393 -0.26169556 -0.14461337 0.5701051 -0.4155001 0.15619756 -0.0506084 0.040602326 0.05930957 0.64183325 0.9400719 0.9222581 1.408967 0.022364834 0.3471441 -1.362738 0.86537683 0.2741268 -0.4777023 0.07403768 0.6820252 0.68194634 0.8778893 0.79622585 -0.50378 -0.9767168 -0.5963597 0.04733196 0.117015354 0.121072166 -0.08735579 0.042326834 0.37625924 0.28737518 -0.46992397 0.60034484 0.26435682 -1.0113707 -0.13670446 -0.43084714 0.23473673 -0.6067961 -0.6630891 -0.29378355 -0.2236749 0.056816924 -1.144899 0.6086075 -0.84879494 -0.6857163 0.63287014 -0.5651489 -0.14769447 0.44426295 0.22517934 0.24115357 -0.20248918 -0.5384729 0.60651356 1.5083652 0.6804198 0.27944607 -0.1299787 0.44167468 1.221834 0.5927189 0.95760924 0.69736534 0.16228744 -0.28832 -1.2127092 -0.6403816 -0.12826557 -0.53049976 -0.68299836 -0.020895623 0.263041 0.98326814 0.0015700647 0.362448 -0.6049816 -0.05818918 0.57873863 0.863423 -0.42395857 -0.6126181 0.027962161 -0.15087603 -1.713929 -0.5532385 0.30977017 0.2157962 0.18377897 0.14887437 0.31063816 1.0258363 0.34056762 0.115864284 0.061575223 -0.64520115 0.873089 -0.63120985 0.87352985 0.6204649 0.5852176 0.6712288 0.824981 0.5211888 -0.13931634 0.5940025 -0.6516412 0.5220087 0.2463634 0.1818304 0.1118326 0.24000624 -0.7793191 0.44642323 0.3107121 -0.08935211 0.39903456 0.1588919 0.97809845 0.5001453 -0.62633026 0.062166184 0.27050743 0.16654973 0.19812548 -0.0069986614 -1.292378 -0.8308058 0.74921876 0.8117903 0.8190976 -0.63082993 0.40903607 -0.10723697 0.7240281 -0.30242962 -0.26257536 -0.39858603 -0.14429288 -0.4663924 -0.42754212 0.16942349 -0.75707865 0.5901342 0.6439974 -1.4206108 0.8931296 0.1182913 -0.6870749 0.6284179 0.6343763 -0.032547668 -1.0112113 0.54756856 0.24128257 0.17079905 -0.8839219 0.6753424 -0.69761556 -0.24838343 -0.124345936 -0.3586802 0.114522345 -1.3440015 -0.7481498 0.5767524 0.030454196 0.7074758 -1.3697689 0.36204585 0.485694 -0.5140785 -0.58524543 -0.05538798 -0.6159244 -0.019182114 0.2697532 -0.649456 -0.42656037 -0.21171923 -0.2263937 -0.60608053 -0.37091643 0.076871924 -0.06466005 -0.24670675 -0.4971179 0.33951896 -0.7516777 0.6930593 0.092101835 -0.70110685 0.3692277 0.21659999 -0.2759077 -0.22820821 0.42976645 -0.41784403 0.8856863 0.12739246 0.7735546 0.2927666 0.25689465 -0.107048 -0.6421142 -0.38676482 -0.4163069 -0.40308228 -0.07455867 0.33735934 -0.06785014 0.9966629
accessory 0.3559386 -0.25194967 -0.45799038 -0.48099807 0.24655475 -0.9833707 -2.2761374 -1.1682554 -0.721728 1.1032162 -0.9406212 -0.82595086 0.34033552 0.91286504 0.8549189 -0.07199096 -0.18329057 -0.48316085 -0.182933 -0.58078027 0.046184175 -0.47106817 0.22084549 0.63004035 -0.57282144 0.3824049 0.1608133 -0.26213914 0.06477547 0.7738906 0.78960216 -0.08580472 -0.2861208 -0.40278065 0.36039692 -0.86029965 -0.1675115 0.19641417 0.44215012 0.25254026 -0.38847128 -0.80565816 -0.8280629 -0.6261067 0.4027897 -0.5227229 -0.34210673 -0.9633181 1.0519974 -0.87131345 -0.5813092 0.18514325 1.0151742 1.2389226 0.3670281 -0.32608348 -0.40818256 -0.75986624 1.1309592 0.47794062 0.59040296 -1.2406232 0.059646245 0.46119574 -0.60211664 1.162793 0.88531107 -0.518212 -0.27558357 0.9319093 0.10694731 0.16645321 -0.05256714 -0.17711857 -0.85969526 0.21622238 -0.43589866 -0.28869763 0.46139446 -0.68388164 -0.20247218 -0.1893247 0.76282763 0.0033668794 0.7079444 0.06919945 -1.0772961 -0.020432346 0.42663035 -0.4341226 -1.081993 -0.47541013 0.29031357 -0.21060951 -0.41610473 -1.3870959 -0.89818877 0.4337926 -0.053398203 -0.122917145 0.69191664 0.28305265 -0.042372603 0.34737945 -0.055887 0.569046 0.022978889 0.34324312 -0.8837366 0.80759287 0.17158183 0.32624796 1.091086 -0.27582544 0.029938888 -0.2861904 0.13172917 -0.74431735 -0.26864514 -0.00820047 0.3179779 0.07220825 -1.1976318 -0.19771768 0.08627196 0.9607575 0.9769147 0.547049 0.5905993 -0.6263285 0.4595439 0.4646321 1.1248757 0.57754964 0.22235225 0.3365266 -0.1251845 -0.84398526 0.09422746 -0.39668354 0.06598385 0.13128264 0.37456352 -0.8695046 -0.6401815 -0.52133024 -0.07775873 0.1359558 -0.93571943 -0.9076506 -0.653884 -0.03746711 -0.82340896 -0.14590178 1.3661451 -0.5052525 -0.67702687 0.6859855 0.23751044 -0.013825015 0.4359368 -0.016996223 0.087379254 -0.11022355 0.9584817 0.45683083 0.28061736 -0.9751897 0.69717795 -0.47797945 -0.23670457 -0.71083647 -0.28371733 -0.62549204 0.3623244 -0.8134777 0.10781839 0.19082625 0.9599073 -0.25286746 0.7650096 0.111006975 -0.35858253 0.04977414 0.37660056 0.013520557 0.7444826 -0.43710995 -0.0022297273 -0.62677205 0.26887617 0.65350425 -0.5638407 0.43547523 0.12718089 0.19644374 -0.38048884 -0.10712774 0.41460687 0.019762652 0.19229226 0.20294881 0.17565848 -0.62688166 -0.5593702 -0.18834728 0.15568887 -0.07455165 0.6705004 0.5826576 0.41306975 -0.92492604 1.2546704 -0.23749384 -0.29863063 0.109693944 -0.11055037 -0.39688805 0.34679866 1.3853446 -0.29456323 -0.35488513 -0.19113457 -0.32361996 -0.6091124 0.026876079 -1.1494678 -0.17363901 -0.100147456 -0.8318508 0.78511214 0.42093596 -0.40546218 0.49492532 0.4389738 -0.23025164 0.36812454 -0.61127555 1.2002884 -1.2148768 0.49472988 -0.7512694 -0.98598844 0.14787403 0.21985997 0.037766106 0.74702376 1.716923 -0.09550511 -0.49901325 0.30306968 -0.57147354 0.44122136 -0.5533938 0.39773458 -0.47443607 0.51217604 -1.4051486 -0.9004465 0.1957957 0.7620732 0.087829806 -0.05313593 -0.4046745 0.65912247 0.25771528 -0.42886183 0.15757294 1.2845398 0.82360387 0.9334821 -0.73055625 -0.038442396 0.84640694 0.16597113 -0.8916217 0.27123502 -0.41148645 0.13854882 -0.8841972 -0.54438573 0.43266457 -0.65454763 1.5203655 0.31426004 -1.2327157 0.32184952 -0.17560606 -0.07182826 -0.08233097 0.42041197 -0.1667358 0.4665997 0.15778506 -0.15652041 -0.63080966 -1.2206073 -0.16185 -0.87440383 -0.7763316
